<?xml version="1.0" encoding="UTF-8" standalone="yes"?>
<PMML xmlns="http://www.dmg.org/PMML-4_3" version="4.3">
	<Header>
		<Application name="JPMML-SkLearn" version="1.5.38"/>
		<Timestamp>2021-03-12T01:37:20Z</Timestamp>
	</Header>
	<MiningBuildTask>
		<Extension>PMMLPipeline(steps=[('classifier', XGBClassifier(base_score=0.5, booster='gbtree', colsample_bylevel=1,
              colsample_bytree=0.8, gamma=0.1, learning_rate=0.1,
              max_delta_step=0, max_depth=5, min_child_weight=3, missing=nan,
              n_estimators=72, n_jobs=-1, nthread=None,
              objective='binary:logistic', random_state=0, reg_alpha=1,
              reg_lambda=10, scale_pos_weight=1, seed=None, silent=1,
              subsample=0.8))])</Extension>
	</MiningBuildTask>
	<DataDictionary>
		<DataField name="DPD30_flag_f3m" optype="categorical" dataType="integer">
			<Value value="0"/>
			<Value value="1"/>
		</DataField>
		<DataField name="bad_zhuanqian_now_pct" optype="continuous" dataType="float"/>
		<DataField name="bad_jinrong_toubu_180d_pct" optype="continuous" dataType="float"/>
		<DataField name="bad_duwu_all_pct" optype="continuous" dataType="float"/>
		<DataField name="bad_gaowei_365d_pct" optype="continuous" dataType="float"/>
		<DataField name="good_qiche_all_pct" optype="continuous" dataType="float"/>
		<DataField name="good_jiazhang_all_pct" optype="continuous" dataType="float"/>
		<DataField name="good_fangzonghe_180d_pct" optype="continuous" dataType="float"/>
		<DataField name="skilllevelv2" optype="continuous" dataType="float"/>
		<DataField name="good_shenghuo_now_pct" optype="continuous" dataType="float"/>
		<DataField name="bad_jinrong_qita_180d_pct" optype="continuous" dataType="float"/>
		<DataField name="good_shebao_all_pct" optype="continuous" dataType="float"/>
		<DataField name="good_jiaotong_all_pct" optype="continuous" dataType="float"/>
		<DataField name="preav7" optype="continuous" dataType="float"/>
		<DataField name="good_fangzonghe_now_pct" optype="continuous" dataType="float"/>
		<DataField name="total_dpddays_thismth_h1" optype="continuous" dataType="float"/>
		<DataField name="bad_gaowei_all_pct" optype="continuous" dataType="float"/>
		<DataField name="good_gongzuoxuexi_all_pct" optype="continuous" dataType="float"/>
		<DataField name="appscrv3" optype="continuous" dataType="float"/>
		<DataField name="avg_pay_withholding_fail_cnt_avg03m" optype="continuous" dataType="float"/>
		<DataField name="houselevelv2" optype="continuous" dataType="float"/>
	</DataDictionary>
	<MiningModel functionName="classification" algorithmName="XGBoost (GBTree)" x-mathContext="float">
		<MiningSchema>
			<MiningField name="DPD30_flag_f3m" usageType="target"/>
			<MiningField name="bad_zhuanqian_now_pct"/>
			<MiningField name="bad_jinrong_toubu_180d_pct"/>
			<MiningField name="bad_duwu_all_pct"/>
			<MiningField name="bad_gaowei_365d_pct"/>
			<MiningField name="good_qiche_all_pct"/>
			<MiningField name="good_jiazhang_all_pct"/>
			<MiningField name="good_fangzonghe_180d_pct"/>
			<MiningField name="skilllevelv2"/>
			<MiningField name="good_shenghuo_now_pct"/>
			<MiningField name="bad_jinrong_qita_180d_pct"/>
			<MiningField name="good_shebao_all_pct"/>
			<MiningField name="good_jiaotong_all_pct"/>
			<MiningField name="preav7"/>
			<MiningField name="good_fangzonghe_now_pct"/>
			<MiningField name="total_dpddays_thismth_h1"/>
			<MiningField name="bad_gaowei_all_pct"/>
			<MiningField name="good_gongzuoxuexi_all_pct"/>
			<MiningField name="appscrv3"/>
			<MiningField name="avg_pay_withholding_fail_cnt_avg03m"/>
			<MiningField name="houselevelv2"/>
		</MiningSchema>
		<Segmentation multipleModelMethod="modelChain" x-missingPredictionTreatment="returnMissing">
			<Segment id="1">
				<True/>
				<MiningModel functionName="regression" x-mathContext="float">
					<MiningSchema>
						<MiningField name="bad_zhuanqian_now_pct"/>
						<MiningField name="bad_jinrong_toubu_180d_pct"/>
						<MiningField name="bad_duwu_all_pct"/>
						<MiningField name="bad_gaowei_365d_pct"/>
						<MiningField name="good_qiche_all_pct"/>
						<MiningField name="good_jiazhang_all_pct"/>
						<MiningField name="good_fangzonghe_180d_pct"/>
						<MiningField name="skilllevelv2"/>
						<MiningField name="good_shenghuo_now_pct"/>
						<MiningField name="bad_jinrong_qita_180d_pct"/>
						<MiningField name="good_shebao_all_pct"/>
						<MiningField name="good_jiaotong_all_pct"/>
						<MiningField name="preav7"/>
						<MiningField name="good_fangzonghe_now_pct"/>
						<MiningField name="total_dpddays_thismth_h1"/>
						<MiningField name="bad_gaowei_all_pct"/>
						<MiningField name="good_gongzuoxuexi_all_pct"/>
						<MiningField name="appscrv3"/>
						<MiningField name="avg_pay_withholding_fail_cnt_avg03m"/>
						<MiningField name="houselevelv2"/>
					</MiningSchema>
					<Output>
						<OutputField name="xgbValue" optype="continuous" dataType="float" isFinalResult="false"/>
					</Output>
					<Segmentation multipleModelMethod="sum">
						<Segment id="1">
							<True/>
							<TreeModel functionName="regression" noTrueChildStrategy="returnLastPrediction" x-mathContext="float">
								<MiningSchema>
									<MiningField name="bad_duwu_all_pct"/>
									<MiningField name="good_qiche_all_pct"/>
									<MiningField name="good_jiazhang_all_pct"/>
									<MiningField name="skilllevelv2"/>
									<MiningField name="preav7"/>
									<MiningField name="good_gongzuoxuexi_all_pct"/>
									<MiningField name="appscrv3"/>
									<MiningField name="avg_pay_withholding_fail_cnt_avg03m"/>
								</MiningSchema>
								<Node score="-0.1921201">
									<True/>
									<Node score="-0.06057143">
										<SimplePredicate field="avg_pay_withholding_fail_cnt_avg03m" operator="greaterOrEqual" value="3.5"/>
										<Node score="0.06017192">
											<SimplePredicate field="avg_pay_withholding_fail_cnt_avg03m" operator="greaterOrEqual" value="5.5"/>
											<Node score="0.045652177">
												<SimplePredicate field="good_qiche_all_pct" operator="lessThan" value="0.015018795"/>
												<Node score="0.02278481">
													<SimplePredicate field="bad_duwu_all_pct" operator="lessThan" value="0.01273937"/>
													<Node score="-0.047222223">
														<SimplePredicate field="appscrv3" operator="greaterOrEqual" value="0.030989047"/>
													</Node>
												</Node>
												<Node score="-0.013592233">
													<SimplePredicate field="preav7" operator="greaterOrEqual" value="0.05611633"/>
												</Node>
											</Node>
											<Node score="-0.029629631">
												<SimplePredicate field="appscrv3" operator="greaterOrEqual" value="0.07506448"/>
												<Node score="0.006451613">
													<SimplePredicate field="good_gongzuoxuexi_all_pct" operator="lessThan" value="0.017155424"/>
												</Node>
											</Node>
											<Node score="-0.0055555557">
												<SimplePredicate field="good_jiazhang_all_pct" operator="greaterOrEqual" value="0.036389858"/>
											</Node>
										</Node>
										<Node score="-0.04191617">
											<SimplePredicate field="avg_pay_withholding_fail_cnt_avg03m" operator="greaterOrEqual" value="4.5"/>
											<Node score="0.029629631">
												<SimplePredicate field="skilllevelv2" operator="lessThan" value="2.5"/>
												<Node score="-0.011764706">
													<SimplePredicate field="bad_duwu_all_pct" operator="lessThan" value="0.014599315"/>
												</Node>
											</Node>
											<Node score="-0.0">
												<SimplePredicate field="good_qiche_all_pct" operator="lessThan" value="0.016954023"/>
											</Node>
										</Node>
										<Node score="-0.020689657">
											<SimplePredicate field="good_qiche_all_pct" operator="greaterOrEqual" value="0.06417295"/>
											<Node score="0.024561403">
												<SimplePredicate field="good_qiche_all_pct" operator="lessThan" value="0.08029001"/>
											</Node>
										</Node>
										<Node score="-0.0">
											<SimplePredicate field="good_jiazhang_all_pct" operator="greaterOrEqual" value="0.08896151"/>
										</Node>
									</Node>
									<Node score="-0.14488518">
										<SimplePredicate field="avg_pay_withholding_fail_cnt_avg03m" operator="greaterOrEqual" value="1.8333333"/>
										<Node score="-0.0">
											<SimplePredicate field="preav7" operator="lessThan" value="0.013261272"/>
										</Node>
										<Node score="-0.112254575">
											<SimplePredicate field="avg_pay_withholding_fail_cnt_avg03m" operator="greaterOrEqual" value="2.5"/>
											<Node score="-0.003508772">
												<SimplePredicate field="good_qiche_all_pct" operator="greaterOrEqual" value="0.115944736"/>
											</Node>
										</Node>
									</Node>
									<Node score="-0.17137055">
										<SimplePredicate field="avg_pay_withholding_fail_cnt_avg03m" operator="greaterOrEqual" value="1.1666667"/>
									</Node>
								</Node>
							</TreeModel>
						</Segment>
						<Segment id="2">
							<True/>
							<TreeModel functionName="regression" noTrueChildStrategy="returnLastPrediction" x-mathContext="float">
								<MiningSchema>
									<MiningField name="bad_jinrong_toubu_180d_pct"/>
									<MiningField name="bad_duwu_all_pct"/>
									<MiningField name="bad_gaowei_365d_pct"/>
									<MiningField name="good_qiche_all_pct"/>
									<MiningField name="good_shenghuo_now_pct"/>
									<MiningField name="good_jiaotong_all_pct"/>
									<MiningField name="preav7"/>
									<MiningField name="good_gongzuoxuexi_all_pct"/>
									<MiningField name="avg_pay_withholding_fail_cnt_avg03m"/>
									<MiningField name="houselevelv2"/>
								</MiningSchema>
								<Node score="-0.17401272">
									<True/>
									<Node score="-0.0013120156">
										<SimplePredicate field="avg_pay_withholding_fail_cnt_avg03m" operator="greaterOrEqual" value="3.5"/>
										<Node score="0.052691817">
											<SimplePredicate field="avg_pay_withholding_fail_cnt_avg03m" operator="greaterOrEqual" value="5.833333"/>
											<Node score="-0.0">
												<SimplePredicate field="good_qiche_all_pct" operator="lessThan" value="0.0064113103"/>
												<Node score="-0.040460214">
													<SimplePredicate field="good_gongzuoxuexi_all_pct" operator="lessThan" value="0.0364274"/>
													<Node score="0.0096579995">
														<SimplePredicate field="avg_pay_withholding_fail_cnt_avg03m" operator="greaterOrEqual" value="17.833332"/>
													</Node>
												</Node>
												<Node score="0.03479132">
													<SimplePredicate field="good_shenghuo_now_pct" operator="lessThan" value="0.09600614"/>
												</Node>
											</Node>
											<Node score="-0.013884361">
												<SimplePredicate field="good_jiaotong_all_pct" operator="greaterOrEqual" value="0.00865817"/>
												<Node score="0.026493305">
													<SimplePredicate field="good_shenghuo_now_pct" operator="lessThan" value="0.030776516"/>
												</Node>
											</Node>
											<Node score="-0.008014809">
												<SimplePredicate field="bad_duwu_all_pct" operator="greaterOrEqual" value="0.059411764"/>
											</Node>
										</Node>
										<Node score="-0.002393261">
											<SimplePredicate field="avg_pay_withholding_fail_cnt_avg03m" operator="greaterOrEqual" value="4.166667"/>
											<Node score="0.035537984">
												<SimplePredicate field="preav7" operator="lessThan" value="0.034155257"/>
												<Node score="-0.017215153">
													<SimplePredicate field="bad_duwu_all_pct" operator="lessThan" value="0.014235055"/>
												</Node>
											</Node>
											<Node score="-0.04324441">
												<SimplePredicate field="bad_jinrong_toubu_180d_pct" operator="lessThan" value="0.046012707"/>
											</Node>
										</Node>
										<Node score="0.013962026">
											<SimplePredicate field="good_qiche_all_pct" operator="greaterOrEqual" value="0.049545866"/>
											<Node score="-0.018610675">
												<SimplePredicate field="bad_gaowei_365d_pct" operator="lessThan" value="0.01400313"/>
											</Node>
										</Node>
										<Node score="-0.06802822">
											<SimplePredicate field="houselevelv2" operator="lessThan" value="3.5"/>
										</Node>
									</Node>
									<Node score="-0.14000253">
										<SimplePredicate field="avg_pay_withholding_fail_cnt_avg03m" operator="greaterOrEqual" value="1.5"/>
										<Node score="-0.10747983">
											<SimplePredicate field="avg_pay_withholding_fail_cnt_avg03m" operator="greaterOrEqual" value="2.5"/>
											<Node score="-0.0">
												<SimplePredicate field="good_qiche_all_pct" operator="greaterOrEqual" value="0.115944736"/>
											</Node>
											<Node score="-0.010586707">
												<SimplePredicate field="good_shenghuo_now_pct" operator="greaterOrEqual" value="0.13373983"/>
											</Node>
										</Node>
										<Node score="-0.0">
											<SimplePredicate field="bad_duwu_all_pct" operator="greaterOrEqual" value="0.122246176"/>
										</Node>
									</Node>
								</Node>
							</TreeModel>
						</Segment>
						<Segment id="3">
							<True/>
							<TreeModel functionName="regression" noTrueChildStrategy="returnLastPrediction" x-mathContext="float">
								<MiningSchema>
									<MiningField name="bad_jinrong_qita_180d_pct"/>
									<MiningField name="preav7"/>
								</MiningSchema>
								<Node score="-0.15516607">
									<True/>
									<Node score="-0.13875124">
										<SimplePredicate field="bad_jinrong_qita_180d_pct" operator="greaterOrEqual" value="0.031710118"/>
										<Node score="-0.0072181034">
											<SimplePredicate field="preav7" operator="greaterOrEqual" value="0.18061328"/>
										</Node>
									</Node>
								</Node>
							</TreeModel>
						</Segment>
						<Segment id="4">
							<True/>
							<TreeModel functionName="regression" noTrueChildStrategy="returnLastPrediction" x-mathContext="float">
								<MiningSchema>
									<MiningField name="bad_jinrong_toubu_180d_pct"/>
									<MiningField name="good_qiche_all_pct"/>
									<MiningField name="good_jiazhang_all_pct"/>
									<MiningField name="good_fangzonghe_180d_pct"/>
									<MiningField name="good_shenghuo_now_pct"/>
									<MiningField name="good_fangzonghe_now_pct"/>
									<MiningField name="total_dpddays_thismth_h1"/>
									<MiningField name="good_gongzuoxuexi_all_pct"/>
									<MiningField name="avg_pay_withholding_fail_cnt_avg03m"/>
									<MiningField name="houselevelv2"/>
								</MiningSchema>
								<Node score="-0.15405948">
									<True/>
									<Node score="0.05452899">
										<SimplePredicate field="total_dpddays_thismth_h1" operator="greaterOrEqual" value="1.5"/>
										<Node score="0.19951376">
											<SimplePredicate field="total_dpddays_thismth_h1" operator="greaterOrEqual" value="4.5"/>
											<Node score="0.040864777">
												<SimplePredicate field="avg_pay_withholding_fail_cnt_avg03m" operator="greaterOrEqual" value="9.833334"/>
												<Node score="0.14158699">
													<SimplePredicate field="total_dpddays_thismth_h1" operator="greaterOrEqual" value="9.5"/>
												</Node>
												<Node score="-0.024948284">
													<SimplePredicate field="good_jiazhang_all_pct" operator="lessThan" value="0.003246755"/>
												</Node>
											</Node>
										</Node>
										<Node score="-0.04216484">
											<SimplePredicate field="good_jiazhang_all_pct" operator="greaterOrEqual" value="0.012121655"/>
											<Node score="-0.0">
												<SimplePredicate field="houselevelv2" operator="greaterOrEqual" value="2.5"/>
												<Node score="0.039047744">
													<SimplePredicate field="bad_jinrong_toubu_180d_pct" operator="lessThan" value="0.035038367"/>
												</Node>
											</Node>
											<Node score="0.0035025103">
												<SimplePredicate field="good_gongzuoxuexi_all_pct" operator="lessThan" value="0.031462103"/>
											</Node>
										</Node>
										<Node score="-0.013723484">
											<SimplePredicate field="good_qiche_all_pct" operator="greaterOrEqual" value="0.09150718"/>
										</Node>
										<Node score="-0.006732341">
											<SimplePredicate field="good_fangzonghe_now_pct" operator="greaterOrEqual" value="0.024853349"/>
										</Node>
									</Node>
									<Node score="-0.11500722">
										<SimplePredicate field="total_dpddays_thismth_h1" operator="greaterOrEqual" value="0.5"/>
										<Node score="-0.024042802">
											<SimplePredicate field="avg_pay_withholding_fail_cnt_avg03m" operator="greaterOrEqual" value="3.8333335"/>
											<Node score="-0.07611772">
												<SimplePredicate field="bad_jinrong_toubu_180d_pct" operator="lessThan" value="0.061737806"/>
												<Node score="-0.0">
													<SimplePredicate field="good_shenghuo_now_pct" operator="lessThan" value="0.0090499595"/>
												</Node>
											</Node>
											<Node score="0.014213222">
												<SimplePredicate field="good_qiche_all_pct" operator="greaterOrEqual" value="0.02119309"/>
											</Node>
										</Node>
										<Node score="-0.0060794707">
											<SimplePredicate field="good_shenghuo_now_pct" operator="greaterOrEqual" value="0.17902932"/>
										</Node>
										<Node score="-0.015605469">
											<SimplePredicate field="good_fangzonghe_180d_pct" operator="greaterOrEqual" value="0.052088983"/>
										</Node>
									</Node>
									<Node score="-0.10043036">
										<SimplePredicate field="avg_pay_withholding_fail_cnt_avg03m" operator="greaterOrEqual" value="3.5"/>
										<Node score="-0.005898296">
											<SimplePredicate field="good_fangzonghe_180d_pct" operator="greaterOrEqual" value="0.02496124"/>
										</Node>
									</Node>
								</Node>
							</TreeModel>
						</Segment>
						<Segment id="5">
							<True/>
							<TreeModel functionName="regression" noTrueChildStrategy="returnLastPrediction" x-mathContext="float">
								<MiningSchema>
									<MiningField name="bad_jinrong_toubu_180d_pct"/>
									<MiningField name="bad_duwu_all_pct"/>
									<MiningField name="good_qiche_all_pct"/>
									<MiningField name="good_shenghuo_now_pct"/>
									<MiningField name="bad_jinrong_qita_180d_pct"/>
									<MiningField name="good_fangzonghe_now_pct"/>
									<MiningField name="total_dpddays_thismth_h1"/>
									<MiningField name="bad_gaowei_all_pct"/>
									<MiningField name="good_gongzuoxuexi_all_pct"/>
									<MiningField name="appscrv3"/>
									<MiningField name="avg_pay_withholding_fail_cnt_avg03m"/>
								</MiningSchema>
								<Node score="-0.14535366">
									<True/>
									<Node score="0.059305813">
										<SimplePredicate field="total_dpddays_thismth_h1" operator="greaterOrEqual" value="1.5"/>
										<Node score="0.1900246">
											<SimplePredicate field="total_dpddays_thismth_h1" operator="greaterOrEqual" value="4.5"/>
											<Node score="0.070627935">
												<SimplePredicate field="avg_pay_withholding_fail_cnt_avg03m" operator="greaterOrEqual" value="3.5"/>
												<Node score="0.15037215">
													<SimplePredicate field="total_dpddays_thismth_h1" operator="greaterOrEqual" value="10.5"/>
												</Node>
												<Node score="-0.016481018">
													<SimplePredicate field="good_shenghuo_now_pct" operator="greaterOrEqual" value="0.09709653"/>
												</Node>
											</Node>
										</Node>
										<Node score="-0.016656134">
											<SimplePredicate field="bad_duwu_all_pct" operator="lessThan" value="0.021660931"/>
											<Node score="0.010334738">
												<SimplePredicate field="avg_pay_withholding_fail_cnt_avg03m" operator="greaterOrEqual" value="3.1666665"/>
												<Node score="-0.02831674">
													<SimplePredicate field="good_shenghuo_now_pct" operator="lessThan" value="0.06821203"/>
												</Node>
											</Node>
											<Node score="0.04050425">
												<SimplePredicate field="bad_duwu_all_pct" operator="lessThan" value="0.018779755"/>
											</Node>
										</Node>
										<Node score="-0.011373437">
											<SimplePredicate field="appscrv3" operator="greaterOrEqual" value="0.07652219"/>
										</Node>
										<Node score="-0.0">
											<SimplePredicate field="good_qiche_all_pct" operator="greaterOrEqual" value="0.059905156"/>
										</Node>
									</Node>
									<Node score="-0.106980026">
										<SimplePredicate field="total_dpddays_thismth_h1" operator="greaterOrEqual" value="0.5"/>
										<Node score="-0.042344116">
											<SimplePredicate field="avg_pay_withholding_fail_cnt_avg03m" operator="greaterOrEqual" value="3.8333335"/>
											<Node score="0.0024218091">
												<SimplePredicate field="bad_gaowei_all_pct" operator="greaterOrEqual" value="0.035346173"/>
											</Node>
											<Node score="-0.0">
												<SimplePredicate field="bad_jinrong_toubu_180d_pct" operator="greaterOrEqual" value="0.07504928"/>
											</Node>
										</Node>
										<Node score="-0.052880492">
											<SimplePredicate field="bad_jinrong_qita_180d_pct" operator="greaterOrEqual" value="0.08797729"/>
											<Node score="-0.0">
												<SimplePredicate field="good_gongzuoxuexi_all_pct" operator="lessThan" value="0.0256116"/>
											</Node>
										</Node>
										<Node score="-0.0">
											<SimplePredicate field="good_shenghuo_now_pct" operator="greaterOrEqual" value="0.1721444"/>
										</Node>
									</Node>
									<Node score="-0.09785579">
										<SimplePredicate field="avg_pay_withholding_fail_cnt_avg03m" operator="greaterOrEqual" value="3.5"/>
										<Node score="-0.0020017205">
											<SimplePredicate field="good_fangzonghe_now_pct" operator="greaterOrEqual" value="0.02469512"/>
										</Node>
									</Node>
								</Node>
							</TreeModel>
						</Segment>
						<Segment id="6">
							<True/>
							<TreeModel functionName="regression" noTrueChildStrategy="returnLastPrediction" x-mathContext="float">
								<MiningSchema>
									<MiningField name="bad_jinrong_toubu_180d_pct"/>
									<MiningField name="good_fangzonghe_180d_pct"/>
									<MiningField name="skilllevelv2"/>
									<MiningField name="good_shenghuo_now_pct"/>
									<MiningField name="bad_jinrong_qita_180d_pct"/>
									<MiningField name="preav7"/>
									<MiningField name="total_dpddays_thismth_h1"/>
									<MiningField name="good_gongzuoxuexi_all_pct"/>
								</MiningSchema>
								<Node score="-0.13781776">
									<True/>
									<Node score="0.0010915695">
										<SimplePredicate field="total_dpddays_thismth_h1" operator="greaterOrEqual" value="1.5"/>
										<Node score="0.09694">
											<SimplePredicate field="total_dpddays_thismth_h1" operator="greaterOrEqual" value="3.5"/>
											<Node score="0.15958744">
												<SimplePredicate field="total_dpddays_thismth_h1" operator="greaterOrEqual" value="8.5"/>
											</Node>
											<Node score="-4.1988282E-4">
												<SimplePredicate field="good_fangzonghe_180d_pct" operator="greaterOrEqual" value="0.021660931"/>
											</Node>
											<Node score="2.5862505E-4">
												<SimplePredicate field="good_gongzuoxuexi_all_pct" operator="greaterOrEqual" value="0.07373428"/>
											</Node>
										</Node>
										<Node score="0.0014974462">
											<SimplePredicate field="good_shenghuo_now_pct" operator="greaterOrEqual" value="0.0858679"/>
											<Node score="0.028095711">
												<SimplePredicate field="bad_jinrong_toubu_180d_pct" operator="lessThan" value="0.016145835"/>
												<Node score="-0.0071715945">
													<SimplePredicate field="good_shenghuo_now_pct" operator="lessThan" value="0.09838709"/>
												</Node>
											</Node>
											<Node score="-0.044649594">
												<SimplePredicate field="bad_jinrong_qita_180d_pct" operator="lessThan" value="0.019049345"/>
											</Node>
										</Node>
										<Node score="0.007864897">
											<SimplePredicate field="preav7" operator="greaterOrEqual" value="0.06433694"/>
											<Node score="-0.03136475">
												<SimplePredicate field="bad_jinrong_toubu_180d_pct" operator="lessThan" value="0.01444062"/>
											</Node>
										</Node>
										<Node score="0.05063028">
											<SimplePredicate field="skilllevelv2" operator="lessThan" value="4.5"/>
										</Node>
									</Node>
									<Node score="-0.10641666">
										<SimplePredicate field="total_dpddays_thismth_h1" operator="greaterOrEqual" value="0.5"/>
										<Node score="-0.0">
											<SimplePredicate field="bad_jinrong_qita_180d_pct" operator="greaterOrEqual" value="0.03405226"/>
											<Node score="-0.0">
												<SimplePredicate field="bad_jinrong_qita_180d_pct" operator="lessThan" value="0.15952036"/>
												<Node score="-0.06546657">
													<SimplePredicate field="good_shenghuo_now_pct" operator="lessThan" value="0.12414384"/>
												</Node>
											</Node>
										</Node>
										<Node score="-0.08334463">
											<SimplePredicate field="preav7" operator="greaterOrEqual" value="0.046315417"/>
											<Node score="-0.0">
												<SimplePredicate field="preav7" operator="lessThan" value="0.0466512"/>
											</Node>
										</Node>
									</Node>
								</Node>
							</TreeModel>
						</Segment>
						<Segment id="7">
							<True/>
							<TreeModel functionName="regression" noTrueChildStrategy="returnLastPrediction" x-mathContext="float">
								<MiningSchema>
									<MiningField name="bad_duwu_all_pct"/>
									<MiningField name="good_qiche_all_pct"/>
									<MiningField name="good_shenghuo_now_pct"/>
									<MiningField name="good_jiaotong_all_pct"/>
									<MiningField name="preav7"/>
									<MiningField name="total_dpddays_thismth_h1"/>
									<MiningField name="bad_gaowei_all_pct"/>
									<MiningField name="appscrv3"/>
									<MiningField name="avg_pay_withholding_fail_cnt_avg03m"/>
									<MiningField name="houselevelv2"/>
								</MiningSchema>
								<Node score="-0.13192527">
									<True/>
									<Node score="0.020519419">
										<SimplePredicate field="total_dpddays_thismth_h1" operator="greaterOrEqual" value="1.5"/>
										<Node score="0.10433141">
											<SimplePredicate field="total_dpddays_thismth_h1" operator="greaterOrEqual" value="3.5"/>
											<Node score="0.15655233">
												<SimplePredicate field="total_dpddays_thismth_h1" operator="greaterOrEqual" value="11.5"/>
											</Node>
											<Node score="0.033862807">
												<SimplePredicate field="avg_pay_withholding_fail_cnt_avg03m" operator="greaterOrEqual" value="12.5"/>
												<Node score="-0.02747804">
													<SimplePredicate field="good_qiche_all_pct" operator="lessThan" value="0.010205145"/>
												</Node>
											</Node>
											<Node score="-0.0">
												<SimplePredicate field="bad_gaowei_all_pct" operator="greaterOrEqual" value="0.04836823"/>
											</Node>
										</Node>
										<Node score="-0.038451534">
											<SimplePredicate field="avg_pay_withholding_fail_cnt_avg03m" operator="greaterOrEqual" value="3.1666665"/>
											<Node score="0.041146353">
												<SimplePredicate field="good_qiche_all_pct" operator="greaterOrEqual" value="0.00310359"/>
												<Node score="-0.013140859">
													<SimplePredicate field="bad_duwu_all_pct" operator="lessThan" value="0.014760345"/>
												</Node>
											</Node>
											<Node score="0.0032787092">
												<SimplePredicate field="houselevelv2" operator="greaterOrEqual" value="1.5"/>
											</Node>
										</Node>
										<Node score="0.06031802">
											<SimplePredicate field="preav7" operator="lessThan" value="0.06810537"/>
											<Node score="-0.0">
												<SimplePredicate field="good_shenghuo_now_pct" operator="greaterOrEqual" value="0.079711184"/>
											</Node>
										</Node>
										<Node score="-0.02117446">
											<SimplePredicate field="appscrv3" operator="greaterOrEqual" value="0.03872312"/>
										</Node>
									</Node>
									<Node score="-0.101759546">
										<SimplePredicate field="total_dpddays_thismth_h1" operator="greaterOrEqual" value="0.5"/>
										<Node score="-0.051464684">
											<SimplePredicate field="avg_pay_withholding_fail_cnt_avg03m" operator="greaterOrEqual" value="3.1666665"/>
											<Node score="0.027523158">
												<SimplePredicate field="good_qiche_all_pct" operator="greaterOrEqual" value="0.06423481"/>
												<Node score="-0.002353813">
													<SimplePredicate field="bad_duwu_all_pct" operator="lessThan" value="0.00496661"/>
												</Node>
											</Node>
											<Node score="0.00840954">
												<SimplePredicate field="bad_gaowei_all_pct" operator="greaterOrEqual" value="0.02710047"/>
											</Node>
										</Node>
										<Node score="-0.0">
											<SimplePredicate field="good_shenghuo_now_pct" operator="greaterOrEqual" value="0.1721444"/>
										</Node>
										<Node score="-0.08079888">
											<SimplePredicate field="preav7" operator="greaterOrEqual" value="0.042749207"/>
										</Node>
									</Node>
									<Node score="-0.0">
										<SimplePredicate field="avg_pay_withholding_fail_cnt_avg03m" operator="greaterOrEqual" value="6.5"/>
										<Node score="-0.011664366">
											<SimplePredicate field="avg_pay_withholding_fail_cnt_avg03m" operator="greaterOrEqual" value="6.833333"/>
											<Node score="-0.059446413">
												<SimplePredicate field="good_jiaotong_all_pct" operator="lessThan" value="0.01882477"/>
											</Node>
										</Node>
									</Node>
								</Node>
							</TreeModel>
						</Segment>
						<Segment id="8">
							<True/>
							<TreeModel functionName="regression" noTrueChildStrategy="returnLastPrediction" x-mathContext="float">
								<MiningSchema>
									<MiningField name="bad_jinrong_toubu_180d_pct"/>
									<MiningField name="bad_duwu_all_pct"/>
									<MiningField name="bad_gaowei_365d_pct"/>
									<MiningField name="good_jiazhang_all_pct"/>
									<MiningField name="good_fangzonghe_180d_pct"/>
									<MiningField name="good_shenghuo_now_pct"/>
									<MiningField name="good_jiaotong_all_pct"/>
									<MiningField name="total_dpddays_thismth_h1"/>
									<MiningField name="bad_gaowei_all_pct"/>
									<MiningField name="appscrv3"/>
									<MiningField name="avg_pay_withholding_fail_cnt_avg03m"/>
									<MiningField name="houselevelv2"/>
								</MiningSchema>
								<Node score="-0.12681416">
									<True/>
									<Node score="0.042769436">
										<SimplePredicate field="total_dpddays_thismth_h1" operator="greaterOrEqual" value="1.5"/>
										<Node score="0.13826387">
											<SimplePredicate field="total_dpddays_thismth_h1" operator="greaterOrEqual" value="8.5"/>
											<Node score="0.0087131895">
												<SimplePredicate field="good_shenghuo_now_pct" operator="greaterOrEqual" value="0.14142856"/>
											</Node>
										</Node>
										<Node score="0.09991159">
											<SimplePredicate field="total_dpddays_thismth_h1" operator="greaterOrEqual" value="3.5"/>
											<Node score="0.04553766">
												<SimplePredicate field="avg_pay_withholding_fail_cnt_avg03m" operator="greaterOrEqual" value="3.5"/>
												<Node score="-0.01429991">
													<SimplePredicate field="bad_jinrong_toubu_180d_pct" operator="lessThan" value="0.0122704"/>
												</Node>
											</Node>
											<Node score="-0.0">
												<SimplePredicate field="bad_jinrong_toubu_180d_pct" operator="greaterOrEqual" value="0.054424286"/>
											</Node>
										</Node>
										<Node score="-0.03344886">
											<SimplePredicate field="appscrv3" operator="greaterOrEqual" value="0.049606167"/>
											<Node score="0.0046354993">
												<SimplePredicate field="good_jiazhang_all_pct" operator="lessThan" value="0.01852487"/>
											</Node>
										</Node>
										<Node score="-7.030353E-4">
											<SimplePredicate field="avg_pay_withholding_fail_cnt_avg03m" operator="greaterOrEqual" value="3.8333335"/>
										</Node>
									</Node>
									<Node score="-0.087033056">
										<SimplePredicate field="total_dpddays_thismth_h1" operator="greaterOrEqual" value="0.5"/>
										<Node score="-0.052239764">
											<SimplePredicate field="avg_pay_withholding_fail_cnt_avg03m" operator="greaterOrEqual" value="3.1666665"/>
											<Node score="0.024339732">
												<SimplePredicate field="houselevelv2" operator="greaterOrEqual" value="3.5"/>
												<Node score="-0.02222374">
													<SimplePredicate field="good_jiaotong_all_pct" operator="greaterOrEqual" value="0.001457725"/>
												</Node>
											</Node>
											<Node score="-0.0">
												<SimplePredicate field="good_shenghuo_now_pct" operator="lessThan" value="0.0090499595"/>
											</Node>
										</Node>
										<Node score="-0.0028038432">
											<SimplePredicate field="good_fangzonghe_180d_pct" operator="greaterOrEqual" value="0.052088983"/>
										</Node>
										<Node score="-0.0028804764">
											<SimplePredicate field="good_shenghuo_now_pct" operator="greaterOrEqual" value="0.1719212"/>
										</Node>
									</Node>
									<Node score="-0.077398114">
										<SimplePredicate field="avg_pay_withholding_fail_cnt_avg03m" operator="greaterOrEqual" value="3.1666665"/>
										<Node score="-0.025826542">
											<SimplePredicate field="bad_gaowei_all_pct" operator="greaterOrEqual" value="0.04602998"/>
											<Node score="0.016525885">
												<SimplePredicate field="bad_gaowei_365d_pct" operator="lessThan" value="0.048583794"/>
											</Node>
										</Node>
										<Node score="-0.0040215333">
											<SimplePredicate field="bad_duwu_all_pct" operator="greaterOrEqual" value="0.052310728"/>
										</Node>
									</Node>
								</Node>
							</TreeModel>
						</Segment>
						<Segment id="9">
							<True/>
							<TreeModel functionName="regression" noTrueChildStrategy="returnLastPrediction" x-mathContext="float">
								<MiningSchema>
									<MiningField name="bad_zhuanqian_now_pct"/>
									<MiningField name="good_qiche_all_pct"/>
									<MiningField name="good_jiazhang_all_pct"/>
									<MiningField name="good_fangzonghe_180d_pct"/>
									<MiningField name="good_shenghuo_now_pct"/>
									<MiningField name="bad_jinrong_qita_180d_pct"/>
									<MiningField name="total_dpddays_thismth_h1"/>
									<MiningField name="good_gongzuoxuexi_all_pct"/>
									<MiningField name="appscrv3"/>
									<MiningField name="avg_pay_withholding_fail_cnt_avg03m"/>
									<MiningField name="houselevelv2"/>
								</MiningSchema>
								<Node score="-0.12255972">
									<True/>
									<Node score="-0.0">
										<SimplePredicate field="total_dpddays_thismth_h1" operator="greaterOrEqual" value="1.5"/>
										<Node score="0.13596858">
											<SimplePredicate field="total_dpddays_thismth_h1" operator="greaterOrEqual" value="5.5"/>
											<Node score="0.020339467">
												<SimplePredicate field="avg_pay_withholding_fail_cnt_avg03m" operator="greaterOrEqual" value="9.833334"/>
												<Node score="0.0929436">
													<SimplePredicate field="total_dpddays_thismth_h1" operator="greaterOrEqual" value="9.5"/>
													<Node score="-0.0">
														<SimplePredicate field="good_shenghuo_now_pct" operator="greaterOrEqual" value="0.09668803"/>
													</Node>
												</Node>
												<Node score="-0.029320125">
													<SimplePredicate field="good_jiazhang_all_pct" operator="lessThan" value="0.002202645"/>
												</Node>
											</Node>
											<Node score="-0.0027767112">
												<SimplePredicate field="bad_zhuanqian_now_pct" operator="greaterOrEqual" value="0.028174605"/>
												<Node score="0.044224154">
													<SimplePredicate field="good_shenghuo_now_pct" operator="lessThan" value="0.060661763"/>
												</Node>
											</Node>
											<Node score="0.010247238">
												<SimplePredicate field="good_gongzuoxuexi_all_pct" operator="greaterOrEqual" value="0.083974354"/>
											</Node>
										</Node>
										<Node score="0.05703176">
											<SimplePredicate field="total_dpddays_thismth_h1" operator="greaterOrEqual" value="2.5"/>
											<Node score="-0.003991742">
												<SimplePredicate field="good_shenghuo_now_pct" operator="greaterOrEqual" value="0.104714915"/>
											</Node>
											<Node score="-0.0">
												<SimplePredicate field="bad_jinrong_qita_180d_pct" operator="greaterOrEqual" value="0.08487654"/>
											</Node>
										</Node>
										<Node score="0.027672222">
											<SimplePredicate field="bad_jinrong_qita_180d_pct" operator="lessThan" value="0.019049345"/>
											<Node score="-0.033419557">
												<SimplePredicate field="appscrv3" operator="greaterOrEqual" value="0.034034453"/>
											</Node>
										</Node>
										<Node score="0.038173955">
											<SimplePredicate field="houselevelv2" operator="lessThan" value="2.5"/>
										</Node>
									</Node>
									<Node score="-0.07162772">
										<SimplePredicate field="total_dpddays_thismth_h1" operator="greaterOrEqual" value="0.5"/>
										<Node score="0.014912325">
											<SimplePredicate field="avg_pay_withholding_fail_cnt_avg03m" operator="greaterOrEqual" value="3.8333335"/>
											<Node score="-0.0">
												<SimplePredicate field="good_gongzuoxuexi_all_pct" operator="greaterOrEqual" value="0.021466974"/>
												<Node score="-0.062554054">
													<SimplePredicate field="good_qiche_all_pct" operator="lessThan" value="0.054517664"/>
												</Node>
											</Node>
											<Node score="-0.020268885">
												<SimplePredicate field="avg_pay_withholding_fail_cnt_avg03m" operator="greaterOrEqual" value="4.833333"/>
											</Node>
										</Node>
										<Node score="-0.026191218">
											<SimplePredicate field="bad_jinrong_qita_180d_pct" operator="greaterOrEqual" value="0.033012442"/>
											<Node score="-0.06722729">
												<SimplePredicate field="good_shenghuo_now_pct" operator="lessThan" value="0.02758752"/>
											</Node>
										</Node>
										<Node score="-0.09506539">
											<SimplePredicate field="good_gongzuoxuexi_all_pct" operator="greaterOrEqual" value="0.01729121"/>
										</Node>
									</Node>
									<Node score="-0.08974472">
										<SimplePredicate field="avg_pay_withholding_fail_cnt_avg03m" operator="greaterOrEqual" value="2.1666665"/>
										<Node score="-0.0">
											<SimplePredicate field="good_fangzonghe_180d_pct" operator="greaterOrEqual" value="0.051064752"/>
										</Node>
										<Node score="-0.0051839035">
											<SimplePredicate field="bad_zhuanqian_now_pct" operator="greaterOrEqual" value="0.05217786"/>
										</Node>
									</Node>
								</Node>
							</TreeModel>
						</Segment>
						<Segment id="10">
							<True/>
							<TreeModel functionName="regression" noTrueChildStrategy="returnLastPrediction" x-mathContext="float">
								<MiningSchema>
									<MiningField name="bad_jinrong_toubu_180d_pct"/>
									<MiningField name="good_shenghuo_now_pct"/>
									<MiningField name="bad_jinrong_qita_180d_pct"/>
									<MiningField name="preav7"/>
									<MiningField name="good_fangzonghe_now_pct"/>
									<MiningField name="total_dpddays_thismth_h1"/>
									<MiningField name="bad_gaowei_all_pct"/>
									<MiningField name="good_gongzuoxuexi_all_pct"/>
									<MiningField name="avg_pay_withholding_fail_cnt_avg03m"/>
								</MiningSchema>
								<Node score="-0.119204976">
									<True/>
									<Node score="0.04234008">
										<SimplePredicate field="total_dpddays_thismth_h1" operator="greaterOrEqual" value="1.5"/>
										<Node score="0.11875881">
											<SimplePredicate field="total_dpddays_thismth_h1" operator="greaterOrEqual" value="7.5"/>
											<Node score="-0.0">
												<SimplePredicate field="good_gongzuoxuexi_all_pct" operator="greaterOrEqual" value="0.0969982"/>
											</Node>
										</Node>
										<Node score="0.008842251">
											<SimplePredicate field="total_dpddays_thismth_h1" operator="greaterOrEqual" value="3.5"/>
											<Node score="0.027009612">
												<SimplePredicate field="avg_pay_withholding_fail_cnt_avg03m" operator="greaterOrEqual" value="5.833333"/>
												<Node score="-0.020783076">
													<SimplePredicate field="bad_gaowei_all_pct" operator="greaterOrEqual" value="0.01780431"/>
												</Node>
											</Node>
											<Node score="0.07786605">
												<SimplePredicate field="avg_pay_withholding_fail_cnt_avg03m" operator="greaterOrEqual" value="0.16666667"/>
											</Node>
										</Node>
										<Node score="-0.008967005">
											<SimplePredicate field="avg_pay_withholding_fail_cnt_avg03m" operator="greaterOrEqual" value="1.8333333"/>
											<Node score="0.02295391">
												<SimplePredicate field="bad_jinrong_qita_180d_pct" operator="greaterOrEqual" value="0.017621491"/>
											</Node>
										</Node>
										<Node score="-0.010943464">
											<SimplePredicate field="good_shenghuo_now_pct" operator="greaterOrEqual" value="0.07975622"/>
										</Node>
									</Node>
									<Node score="-0.08771505">
										<SimplePredicate field="total_dpddays_thismth_h1" operator="greaterOrEqual" value="0.5"/>
										<Node score="-0.03031528">
											<SimplePredicate field="avg_pay_withholding_fail_cnt_avg03m" operator="greaterOrEqual" value="6.5"/>
											<Node score="-0.006987033">
												<SimplePredicate field="bad_jinrong_qita_180d_pct" operator="greaterOrEqual" value="0.009540604"/>
												<Node score="0.03835505">
													<SimplePredicate field="bad_jinrong_qita_180d_pct" operator="lessThan" value="0.02580753"/>
												</Node>
											</Node>
											<Node score="-0.0">
												<SimplePredicate field="preav7" operator="lessThan" value="0.03280461"/>
											</Node>
										</Node>
										<Node score="-0.007990751">
											<SimplePredicate field="bad_jinrong_qita_180d_pct" operator="greaterOrEqual" value="0.037855268"/>
											<Node score="-0.057632167">
												<SimplePredicate field="good_shenghuo_now_pct" operator="lessThan" value="0.062338084"/>
											</Node>
										</Node>
										<Node score="-0.06259741">
											<SimplePredicate field="preav7" operator="greaterOrEqual" value="0.043429095"/>
										</Node>
									</Node>
									<Node score="-0.067695">
										<SimplePredicate field="avg_pay_withholding_fail_cnt_avg03m" operator="greaterOrEqual" value="3.5"/>
										<Node score="0.005345424">
											<SimplePredicate field="good_fangzonghe_now_pct" operator="greaterOrEqual" value="0.02469512"/>
										</Node>
										<Node score="-0.0052373353">
											<SimplePredicate field="bad_jinrong_toubu_180d_pct" operator="greaterOrEqual" value="0.045115337"/>
										</Node>
									</Node>
									<Node score="-0.10198523">
										<SimplePredicate field="avg_pay_withholding_fail_cnt_avg03m" operator="greaterOrEqual" value="1.5"/>
										<Node score="-0.0036802643">
											<SimplePredicate field="bad_jinrong_toubu_180d_pct" operator="greaterOrEqual" value="0.101282045"/>
										</Node>
									</Node>
								</Node>
							</TreeModel>
						</Segment>
						<Segment id="11">
							<True/>
							<TreeModel functionName="regression" noTrueChildStrategy="returnLastPrediction" x-mathContext="float">
								<MiningSchema>
									<MiningField name="bad_zhuanqian_now_pct"/>
									<MiningField name="bad_duwu_all_pct"/>
									<MiningField name="good_fangzonghe_180d_pct"/>
									<MiningField name="bad_jinrong_qita_180d_pct"/>
									<MiningField name="good_shebao_all_pct"/>
									<MiningField name="good_jiaotong_all_pct"/>
									<MiningField name="preav7"/>
									<MiningField name="good_fangzonghe_now_pct"/>
									<MiningField name="total_dpddays_thismth_h1"/>
									<MiningField name="good_gongzuoxuexi_all_pct"/>
									<MiningField name="avg_pay_withholding_fail_cnt_avg03m"/>
								</MiningSchema>
								<Node score="-0.114963286">
									<True/>
									<Node score="0.022040289">
										<SimplePredicate field="total_dpddays_thismth_h1" operator="greaterOrEqual" value="1.5"/>
										<Node score="0.12577184">
											<SimplePredicate field="total_dpddays_thismth_h1" operator="greaterOrEqual" value="8.5"/>
											<Node score="0.08119693">
												<SimplePredicate field="avg_pay_withholding_fail_cnt_avg03m" operator="greaterOrEqual" value="9.833334"/>
												<Node score="0.025274104">
													<SimplePredicate field="good_gongzuoxuexi_all_pct" operator="greaterOrEqual" value="0.049390245"/>
													<Node score="-0.02904283">
														<SimplePredicate field="good_gongzuoxuexi_all_pct" operator="lessThan" value="0.061257035"/>
													</Node>
												</Node>
												<Node score="-0.0">
													<SimplePredicate field="good_jiaotong_all_pct" operator="greaterOrEqual" value="0.00878812"/>
												</Node>
											</Node>
											<Node score="0.030180681">
												<SimplePredicate field="bad_zhuanqian_now_pct" operator="greaterOrEqual" value="0.032002047"/>
												<Node score="-0.0">
													<SimplePredicate field="good_gongzuoxuexi_all_pct" operator="lessThan" value="0.023532666"/>
												</Node>
											</Node>
										</Node>
										<Node score="0.07934862">
											<SimplePredicate field="total_dpddays_thismth_h1" operator="greaterOrEqual" value="2.5"/>
											<Node score="0.025341032">
												<SimplePredicate field="avg_pay_withholding_fail_cnt_avg03m" operator="greaterOrEqual" value="3.5"/>
												<Node score="-0.005967547">
													<SimplePredicate field="bad_duwu_all_pct" operator="lessThan" value="0.018972345"/>
												</Node>
											</Node>
											<Node score="-0.0">
												<SimplePredicate field="good_fangzonghe_180d_pct" operator="greaterOrEqual" value="0.019419305"/>
											</Node>
										</Node>
										<Node score="0.0131499125">
											<SimplePredicate field="good_shebao_all_pct" operator="greaterOrEqual" value="0.0038788202"/>
											<Node score="-0.036225896">
												<SimplePredicate field="preav7" operator="greaterOrEqual" value="0.013416104"/>
											</Node>
										</Node>
										<Node score="-0.009006768">
											<SimplePredicate field="avg_pay_withholding_fail_cnt_avg03m" operator="greaterOrEqual" value="3.1666665"/>
										</Node>
									</Node>
									<Node score="-0.060590964">
										<SimplePredicate field="total_dpddays_thismth_h1" operator="greaterOrEqual" value="0.5"/>
										<Node score="-0.021695687">
											<SimplePredicate field="avg_pay_withholding_fail_cnt_avg03m" operator="greaterOrEqual" value="3.1666665"/>
											<Node score="-0.0562177">
												<SimplePredicate field="good_gongzuoxuexi_all_pct" operator="greaterOrEqual" value="0.01731634"/>
												<Node score="-8.498446E-4">
													<SimplePredicate field="avg_pay_withholding_fail_cnt_avg03m" operator="greaterOrEqual" value="6.5"/>
												</Node>
											</Node>
											<Node score="0.02830918">
												<SimplePredicate field="bad_jinrong_qita_180d_pct" operator="lessThan" value="0.03498572"/>
											</Node>
										</Node>
										<Node score="-0.0018467148">
											<SimplePredicate field="bad_jinrong_qita_180d_pct" operator="lessThan" value="0.008298894"/>
											<Node score="-0.0881044">
												<SimplePredicate field="good_fangzonghe_now_pct" operator="lessThan" value="0.057983197"/>
											</Node>
										</Node>
										<Node score="0.014078704">
											<SimplePredicate field="bad_jinrong_qita_180d_pct" operator="lessThan" value="0.009216785"/>
										</Node>
									</Node>
									<Node score="-0.064932294">
										<SimplePredicate field="avg_pay_withholding_fail_cnt_avg03m" operator="greaterOrEqual" value="3.1666665"/>
										<Node score="-0.010411627">
											<SimplePredicate field="good_jiaotong_all_pct" operator="greaterOrEqual" value="0.01547441"/>
											<Node score="0.007962228">
												<SimplePredicate field="preav7" operator="greaterOrEqual" value="0.042059384"/>
											</Node>
										</Node>
										<Node score="-0.0">
											<SimplePredicate field="avg_pay_withholding_fail_cnt_avg03m" operator="greaterOrEqual" value="17.5"/>
										</Node>
									</Node>
								</Node>
							</TreeModel>
						</Segment>
						<Segment id="12">
							<True/>
							<TreeModel functionName="regression" noTrueChildStrategy="returnLastPrediction" x-mathContext="float">
								<MiningSchema>
									<MiningField name="bad_zhuanqian_now_pct"/>
									<MiningField name="bad_jinrong_toubu_180d_pct"/>
									<MiningField name="bad_duwu_all_pct"/>
									<MiningField name="bad_gaowei_365d_pct"/>
									<MiningField name="good_jiazhang_all_pct"/>
									<MiningField name="good_shenghuo_now_pct"/>
									<MiningField name="bad_jinrong_qita_180d_pct"/>
									<MiningField name="good_fangzonghe_now_pct"/>
									<MiningField name="total_dpddays_thismth_h1"/>
									<MiningField name="good_gongzuoxuexi_all_pct"/>
									<MiningField name="avg_pay_withholding_fail_cnt_avg03m"/>
								</MiningSchema>
								<Node score="-0.112750255">
									<True/>
									<Node score="0.05750955">
										<SimplePredicate field="total_dpddays_thismth_h1" operator="greaterOrEqual" value="1.5"/>
										<Node score="0.1112911">
											<SimplePredicate field="total_dpddays_thismth_h1" operator="greaterOrEqual" value="8.5"/>
											<Node score="-0.011463407">
												<SimplePredicate field="bad_zhuanqian_now_pct" operator="greaterOrEqual" value="0.022616915"/>
												<Node score="0.0482628">
													<SimplePredicate field="good_shenghuo_now_pct" operator="lessThan" value="0.055867672"/>
												</Node>
											</Node>
											<Node score="0.0053015915">
												<SimplePredicate field="good_jiazhang_all_pct" operator="greaterOrEqual" value="0.07499122"/>
											</Node>
										</Node>
										<Node score="0.0010046156">
											<SimplePredicate field="avg_pay_withholding_fail_cnt_avg03m" operator="greaterOrEqual" value="3.1666665"/>
											<Node score="-0.040095124">
												<SimplePredicate field="good_fangzonghe_now_pct" operator="greaterOrEqual" value="0.01105006"/>
												<Node score="-0.0">
													<SimplePredicate field="good_gongzuoxuexi_all_pct" operator="lessThan" value="0.023952955"/>
												</Node>
											</Node>
											<Node score="0.036742613">
												<SimplePredicate field="bad_duwu_all_pct" operator="greaterOrEqual" value="0.01895777"/>
											</Node>
										</Node>
										<Node score="0.022536894">
											<SimplePredicate field="bad_gaowei_365d_pct" operator="greaterOrEqual" value="0.01031915"/>
											<Node score="-0.023672266">
												<SimplePredicate field="bad_jinrong_toubu_180d_pct" operator="lessThan" value="0.01878307"/>
											</Node>
										</Node>
										<Node score="-0.008663153">
											<SimplePredicate field="good_jiazhang_all_pct" operator="greaterOrEqual" value="0.042872895"/>
										</Node>
									</Node>
									<Node score="-0.077290885">
										<SimplePredicate field="total_dpddays_thismth_h1" operator="greaterOrEqual" value="0.5"/>
										<Node score="-0.041754104">
											<SimplePredicate field="avg_pay_withholding_fail_cnt_avg03m" operator="greaterOrEqual" value="1.5"/>
											<Node score="-0.0">
												<SimplePredicate field="bad_jinrong_qita_180d_pct" operator="lessThan" value="0.009009739"/>
												<Node score="-0.067566">
													<SimplePredicate field="bad_jinrong_toubu_180d_pct" operator="lessThan" value="0.06857367"/>
												</Node>
											</Node>
											<Node score="0.005822865">
												<SimplePredicate field="good_gongzuoxuexi_all_pct" operator="lessThan" value="0.01731634"/>
											</Node>
										</Node>
										<Node score="-0.025273431">
											<SimplePredicate field="bad_jinrong_qita_180d_pct" operator="greaterOrEqual" value="0.08759591"/>
											<Node score="0.024617191">
												<SimplePredicate field="good_gongzuoxuexi_all_pct" operator="lessThan" value="0.025773885"/>
											</Node>
										</Node>
										<Node score="-0.0">
											<SimplePredicate field="bad_zhuanqian_now_pct" operator="greaterOrEqual" value="0.064076245"/>
										</Node>
									</Node>
									<Node score="-0.027767599">
										<SimplePredicate field="avg_pay_withholding_fail_cnt_avg03m" operator="greaterOrEqual" value="3.5"/>
										<Node score="-0.0">
											<SimplePredicate field="bad_duwu_all_pct" operator="lessThan" value="0.08113891"/>
											<Node score="-0.056343">
												<SimplePredicate field="bad_jinrong_toubu_180d_pct" operator="lessThan" value="0.07719393"/>
											</Node>
										</Node>
										<Node score="0.021505537">
											<SimplePredicate field="avg_pay_withholding_fail_cnt_avg03m" operator="greaterOrEqual" value="10.833334"/>
										</Node>
									</Node>
									<Node score="-0.09548296">
										<SimplePredicate field="avg_pay_withholding_fail_cnt_avg03m" operator="greaterOrEqual" value="1.5"/>
										<Node score="-8.657071E-5">
											<SimplePredicate field="bad_duwu_all_pct" operator="greaterOrEqual" value="0.09460063"/>
										</Node>
									</Node>
								</Node>
							</TreeModel>
						</Segment>
						<Segment id="13">
							<True/>
							<TreeModel functionName="regression" noTrueChildStrategy="returnLastPrediction" x-mathContext="float">
								<MiningSchema>
									<MiningField name="bad_zhuanqian_now_pct"/>
									<MiningField name="bad_duwu_all_pct"/>
									<MiningField name="good_qiche_all_pct"/>
									<MiningField name="bad_jinrong_qita_180d_pct"/>
									<MiningField name="preav7"/>
									<MiningField name="total_dpddays_thismth_h1"/>
									<MiningField name="bad_gaowei_all_pct"/>
									<MiningField name="appscrv3"/>
									<MiningField name="avg_pay_withholding_fail_cnt_avg03m"/>
								</MiningSchema>
								<Node score="-0.10904526">
									<True/>
									<Node score="0.0382432">
										<SimplePredicate field="total_dpddays_thismth_h1" operator="greaterOrEqual" value="1.5"/>
										<Node score="0.11439347">
											<SimplePredicate field="total_dpddays_thismth_h1" operator="greaterOrEqual" value="8.5"/>
											<Node score="-0.0027234997">
												<SimplePredicate field="bad_zhuanqian_now_pct" operator="greaterOrEqual" value="0.031009614"/>
												<Node score="0.029972915">
													<SimplePredicate field="total_dpddays_thismth_h1" operator="greaterOrEqual" value="15.0"/>
												</Node>
											</Node>
											<Node score="0.06682736">
												<SimplePredicate field="avg_pay_withholding_fail_cnt_avg03m" operator="greaterOrEqual" value="10.833334"/>
												<Node score="-0.0">
													<SimplePredicate field="appscrv3" operator="lessThan" value="0.035868555"/>
												</Node>
											</Node>
										</Node>
										<Node score="-2.0038903E-4">
											<SimplePredicate field="avg_pay_withholding_fail_cnt_avg03m" operator="greaterOrEqual" value="3.1666665"/>
											<Node score="0.011938711">
												<SimplePredicate field="good_qiche_all_pct" operator="lessThan" value="0.006116265"/>
												<Node score="-0.046690203">
													<SimplePredicate field="preav7" operator="greaterOrEqual" value="0.03437814"/>
												</Node>
											</Node>
											<Node score="0.050165415">
												<SimplePredicate field="bad_duwu_all_pct" operator="greaterOrEqual" value="0.019560955"/>
											</Node>
										</Node>
										<Node score="0.0609154">
											<SimplePredicate field="total_dpddays_thismth_h1" operator="greaterOrEqual" value="2.5"/>
											<Node score="0.0010193266">
												<SimplePredicate field="preav7" operator="lessThan" value="0.028983673"/>
											</Node>
										</Node>
										<Node score="-0.004227988">
											<SimplePredicate field="bad_jinrong_qita_180d_pct" operator="lessThan" value="0.023669466"/>
										</Node>
									</Node>
									<Node score="-0.07468294">
										<SimplePredicate field="total_dpddays_thismth_h1" operator="greaterOrEqual" value="0.5"/>
										<Node score="-0.0065997588">
											<SimplePredicate field="avg_pay_withholding_fail_cnt_avg03m" operator="greaterOrEqual" value="3.1666665"/>
											<Node score="0.014488061">
												<SimplePredicate field="bad_gaowei_all_pct" operator="lessThan" value="0.025645245"/>
												<Node score="-0.03894204">
													<SimplePredicate field="good_qiche_all_pct" operator="lessThan" value="0.053430393"/>
												</Node>
											</Node>
											<Node score="0.037520442">
												<SimplePredicate field="preav7" operator="greaterOrEqual" value="0.06213077"/>
											</Node>
										</Node>
										<Node score="-0.032304157">
											<SimplePredicate field="bad_jinrong_qita_180d_pct" operator="greaterOrEqual" value="0.03744159"/>
											<Node score="0.018884186">
												<SimplePredicate field="bad_jinrong_qita_180d_pct" operator="lessThan" value="0.041920956"/>
											</Node>
										</Node>
										<Node score="-0.04694534">
											<SimplePredicate field="preav7" operator="greaterOrEqual" value="0.050389685"/>
										</Node>
									</Node>
									<Node score="-0.08041917">
										<SimplePredicate field="avg_pay_withholding_fail_cnt_avg03m" operator="greaterOrEqual" value="2.1666665"/>
										<Node score="-0.022934912">
											<SimplePredicate field="bad_gaowei_all_pct" operator="greaterOrEqual" value="0.04602998"/>
											<Node score="0.0194454">
												<SimplePredicate field="preav7" operator="lessThan" value="0.045575537"/>
											</Node>
										</Node>
										<Node score="-0.028128529">
											<SimplePredicate field="avg_pay_withholding_fail_cnt_avg03m" operator="greaterOrEqual" value="6.5"/>
										</Node>
									</Node>
								</Node>
							</TreeModel>
						</Segment>
						<Segment id="14">
							<True/>
							<TreeModel functionName="regression" noTrueChildStrategy="returnLastPrediction" x-mathContext="float">
								<MiningSchema>
									<MiningField name="bad_zhuanqian_now_pct"/>
									<MiningField name="bad_jinrong_toubu_180d_pct"/>
									<MiningField name="bad_duwu_all_pct"/>
									<MiningField name="good_shenghuo_now_pct"/>
									<MiningField name="bad_jinrong_qita_180d_pct"/>
									<MiningField name="preav7"/>
									<MiningField name="total_dpddays_thismth_h1"/>
									<MiningField name="bad_gaowei_all_pct"/>
									<MiningField name="good_gongzuoxuexi_all_pct"/>
									<MiningField name="appscrv3"/>
									<MiningField name="avg_pay_withholding_fail_cnt_avg03m"/>
								</MiningSchema>
								<Node score="-0.1088224">
									<True/>
									<Node score="0.005758641">
										<SimplePredicate field="total_dpddays_thismth_h1" operator="greaterOrEqual" value="1.5"/>
										<Node score="0.10519417">
											<SimplePredicate field="total_dpddays_thismth_h1" operator="greaterOrEqual" value="11.5"/>
											<Node score="0.0025636733">
												<SimplePredicate field="good_shenghuo_now_pct" operator="greaterOrEqual" value="0.13714734"/>
											</Node>
										</Node>
										<Node score="0.008162853">
											<SimplePredicate field="total_dpddays_thismth_h1" operator="greaterOrEqual" value="3.5"/>
											<Node score="0.037836805">
												<SimplePredicate field="avg_pay_withholding_fail_cnt_avg03m" operator="greaterOrEqual" value="3.5"/>
												<Node score="-0.019013315">
													<SimplePredicate field="bad_jinrong_toubu_180d_pct" operator="lessThan" value="0.0122704"/>
												</Node>
											</Node>
											<Node score="0.07408949">
												<SimplePredicate field="avg_pay_withholding_fail_cnt_avg03m" operator="greaterOrEqual" value="0.16666667"/>
											</Node>
										</Node>
										<Node score="0.022367334">
											<SimplePredicate field="bad_duwu_all_pct" operator="lessThan" value="0.0141344555"/>
											<Node score="-0.030877126">
												<SimplePredicate field="bad_jinrong_qita_180d_pct" operator="lessThan" value="0.016397849"/>
											</Node>
										</Node>
										<Node score="0.04375715">
											<SimplePredicate field="appscrv3" operator="lessThan" value="0.047823537"/>
										</Node>
									</Node>
									<Node score="-0.070616804">
										<SimplePredicate field="total_dpddays_thismth_h1" operator="greaterOrEqual" value="0.5"/>
										<Node score="-0.04696995">
											<SimplePredicate field="avg_pay_withholding_fail_cnt_avg03m" operator="greaterOrEqual" value="3.1666665"/>
											<Node score="-0.015366829">
												<SimplePredicate field="preav7" operator="lessThan" value="0.04930632"/>
												<Node score="0.03660331">
													<SimplePredicate field="good_gongzuoxuexi_all_pct" operator="lessThan" value="0.018419046"/>
												</Node>
											</Node>
											<Node score="-0.0">
												<SimplePredicate field="bad_duwu_all_pct" operator="greaterOrEqual" value="0.03534672"/>
											</Node>
										</Node>
										<Node score="1.9719517E-4">
											<SimplePredicate field="bad_jinrong_qita_180d_pct" operator="greaterOrEqual" value="0.03744159"/>
											<Node score="-0.06036246">
												<SimplePredicate field="good_shenghuo_now_pct" operator="lessThan" value="0.027402405"/>
											</Node>
										</Node>
										<Node score="-0.04302457">
											<SimplePredicate field="preav7" operator="greaterOrEqual" value="0.04739684"/>
										</Node>
									</Node>
									<Node score="-0.07628457">
										<SimplePredicate field="avg_pay_withholding_fail_cnt_avg03m" operator="greaterOrEqual" value="2.1666665"/>
										<Node score="-0.0">
											<SimplePredicate field="avg_pay_withholding_fail_cnt_avg03m" operator="greaterOrEqual" value="5.166667"/>
											<Node score="-0.044083502">
												<SimplePredicate field="bad_jinrong_toubu_180d_pct" operator="lessThan" value="0.04184174"/>
											</Node>
										</Node>
										<Node score="-7.000921E-4">
											<SimplePredicate field="bad_gaowei_all_pct" operator="greaterOrEqual" value="0.04602998"/>
										</Node>
									</Node>
									<Node score="-0.100069694">
										<SimplePredicate field="avg_pay_withholding_fail_cnt_avg03m" operator="greaterOrEqual" value="0.5"/>
										<Node score="-0.0118103055">
											<SimplePredicate field="bad_zhuanqian_now_pct" operator="greaterOrEqual" value="0.08889064"/>
										</Node>
									</Node>
								</Node>
							</TreeModel>
						</Segment>
						<Segment id="15">
							<True/>
							<TreeModel functionName="regression" noTrueChildStrategy="returnLastPrediction" x-mathContext="float">
								<MiningSchema>
									<MiningField name="bad_zhuanqian_now_pct"/>
									<MiningField name="bad_duwu_all_pct"/>
									<MiningField name="good_qiche_all_pct"/>
									<MiningField name="bad_jinrong_qita_180d_pct"/>
									<MiningField name="preav7"/>
									<MiningField name="good_fangzonghe_now_pct"/>
									<MiningField name="total_dpddays_thismth_h1"/>
									<MiningField name="good_gongzuoxuexi_all_pct"/>
									<MiningField name="appscrv3"/>
									<MiningField name="avg_pay_withholding_fail_cnt_avg03m"/>
								</MiningSchema>
								<Node score="-0.1053393">
									<True/>
									<Node score="0.037409384">
										<SimplePredicate field="total_dpddays_thismth_h1" operator="greaterOrEqual" value="1.5"/>
										<Node score="0.100496806">
											<SimplePredicate field="total_dpddays_thismth_h1" operator="greaterOrEqual" value="11.5"/>
										</Node>
										<Node score="0.059635192">
											<SimplePredicate field="total_dpddays_thismth_h1" operator="greaterOrEqual" value="2.5"/>
											<Node score="0.036095347">
												<SimplePredicate field="avg_pay_withholding_fail_cnt_avg03m" operator="greaterOrEqual" value="3.5"/>
												<Node score="-0.0075974353">
													<SimplePredicate field="bad_duwu_all_pct" operator="lessThan" value="0.019449"/>
												</Node>
											</Node>
											<Node score="-0.0057008374">
												<SimplePredicate field="good_qiche_all_pct" operator="greaterOrEqual" value="0.08955453"/>
											</Node>
										</Node>
										<Node score="-0.0512617">
											<SimplePredicate field="appscrv3" operator="greaterOrEqual" value="0.060310774"/>
											<Node score="-0.0">
												<SimplePredicate field="avg_pay_withholding_fail_cnt_avg03m" operator="greaterOrEqual" value="4.5"/>
											</Node>
										</Node>
										<Node score="0.006775497">
											<SimplePredicate field="avg_pay_withholding_fail_cnt_avg03m" operator="greaterOrEqual" value="1.5"/>
										</Node>
									</Node>
									<Node score="-0.06816295">
										<SimplePredicate field="total_dpddays_thismth_h1" operator="greaterOrEqual" value="0.5"/>
										<Node score="0.026480898">
											<SimplePredicate field="bad_jinrong_qita_180d_pct" operator="greaterOrEqual" value="0.033012442"/>
											<Node score="-0.057563283">
												<SimplePredicate field="good_qiche_all_pct" operator="lessThan" value="0.010753935"/>
												<Node score="0.0074188556">
													<SimplePredicate field="good_gongzuoxuexi_all_pct" operator="lessThan" value="0.00975633"/>
												</Node>
											</Node>
											<Node score="-0.016719492">
												<SimplePredicate field="bad_zhuanqian_now_pct" operator="lessThan" value="0.00672212"/>
											</Node>
										</Node>
										<Node score="-0.030793367">
											<SimplePredicate field="avg_pay_withholding_fail_cnt_avg03m" operator="greaterOrEqual" value="3.1666665"/>
											<Node score="0.0024272215">
												<SimplePredicate field="good_gongzuoxuexi_all_pct" operator="lessThan" value="0.01990493"/>
											</Node>
										</Node>
										<Node score="-0.042569894">
											<SimplePredicate field="preav7" operator="greaterOrEqual" value="0.047062233"/>
										</Node>
									</Node>
									<Node score="-0.051323306">
										<SimplePredicate field="avg_pay_withholding_fail_cnt_avg03m" operator="greaterOrEqual" value="2.8333335"/>
										<Node score="0.008775613">
											<SimplePredicate field="good_fangzonghe_now_pct" operator="greaterOrEqual" value="0.025816124"/>
										</Node>
										<Node score="-0.0">
											<SimplePredicate field="appscrv3" operator="lessThan" value="0.028148532"/>
										</Node>
									</Node>
									<Node score="-0.09410433">
										<SimplePredicate field="avg_pay_withholding_fail_cnt_avg03m" operator="greaterOrEqual" value="0.8333334"/>
										<Node score="-0.010299435">
											<SimplePredicate field="bad_jinrong_qita_180d_pct" operator="greaterOrEqual" value="0.12344988"/>
										</Node>
									</Node>
								</Node>
							</TreeModel>
						</Segment>
						<Segment id="16">
							<True/>
							<TreeModel functionName="regression" noTrueChildStrategy="returnLastPrediction" x-mathContext="float">
								<MiningSchema>
									<MiningField name="bad_zhuanqian_now_pct"/>
									<MiningField name="bad_duwu_all_pct"/>
									<MiningField name="good_fangzonghe_180d_pct"/>
									<MiningField name="good_shenghuo_now_pct"/>
									<MiningField name="bad_jinrong_qita_180d_pct"/>
									<MiningField name="good_shebao_all_pct"/>
									<MiningField name="total_dpddays_thismth_h1"/>
									<MiningField name="bad_gaowei_all_pct"/>
									<MiningField name="good_gongzuoxuexi_all_pct"/>
									<MiningField name="appscrv3"/>
									<MiningField name="avg_pay_withholding_fail_cnt_avg03m"/>
								</MiningSchema>
								<Node score="-0.10418534">
									<True/>
									<Node score="0.032688316">
										<SimplePredicate field="total_dpddays_thismth_h1" operator="greaterOrEqual" value="1.5"/>
										<Node score="0.103381395">
											<SimplePredicate field="total_dpddays_thismth_h1" operator="greaterOrEqual" value="11.5"/>
											<Node score="0.052665956">
												<SimplePredicate field="avg_pay_withholding_fail_cnt_avg03m" operator="greaterOrEqual" value="10.833334"/>
												<Node score="-2.8004794E-4">
													<SimplePredicate field="good_shenghuo_now_pct" operator="greaterOrEqual" value="0.090230666"/>
												</Node>
												<Node score="-0.0">
													<SimplePredicate field="bad_duwu_all_pct" operator="greaterOrEqual" value="0.043805443"/>
												</Node>
											</Node>
										</Node>
										<Node score="0.05611326">
											<SimplePredicate field="total_dpddays_thismth_h1" operator="greaterOrEqual" value="2.5"/>
											<Node score="0.02785186">
												<SimplePredicate field="avg_pay_withholding_fail_cnt_avg03m" operator="greaterOrEqual" value="3.5"/>
												<Node score="-0.009794886">
													<SimplePredicate field="bad_jinrong_qita_180d_pct" operator="lessThan" value="0.011495775"/>
												</Node>
											</Node>
											<Node score="-0.0">
												<SimplePredicate field="bad_zhuanqian_now_pct" operator="greaterOrEqual" value="0.032002047"/>
											</Node>
										</Node>
										<Node score="0.01899398">
											<SimplePredicate field="appscrv3" operator="greaterOrEqual" value="0.031188779"/>
											<Node score="-0.024568884">
												<SimplePredicate field="good_fangzonghe_180d_pct" operator="lessThan" value="0.012281495"/>
											</Node>
										</Node>
										<Node score="-0.008071451">
											<SimplePredicate field="avg_pay_withholding_fail_cnt_avg03m" operator="greaterOrEqual" value="2.5"/>
										</Node>
									</Node>
									<Node score="-0.04574922">
										<SimplePredicate field="total_dpddays_thismth_h1" operator="greaterOrEqual" value="0.5"/>
										<Node score="-0.016988423">
											<SimplePredicate field="avg_pay_withholding_fail_cnt_avg03m" operator="greaterOrEqual" value="2.8333335"/>
											<Node score="-0.063984975">
												<SimplePredicate field="good_shebao_all_pct" operator="greaterOrEqual" value="0.01015464"/>
											</Node>
											<Node score="0.032780837">
												<SimplePredicate field="good_shebao_all_pct" operator="greaterOrEqual" value="0.005406035"/>
											</Node>
										</Node>
										<Node score="-0.0">
											<SimplePredicate field="bad_jinrong_qita_180d_pct" operator="greaterOrEqual" value="0.03744159"/>
											<Node score="-0.058950305">
												<SimplePredicate field="good_shenghuo_now_pct" operator="lessThan" value="0.027402405"/>
											</Node>
										</Node>
										<Node score="-0.067619696">
											<SimplePredicate field="good_gongzuoxuexi_all_pct" operator="greaterOrEqual" value="0.0177253"/>
										</Node>
									</Node>
									<Node score="-0.06373596">
										<SimplePredicate field="avg_pay_withholding_fail_cnt_avg03m" operator="greaterOrEqual" value="2.1666665"/>
										<Node score="0.008780501">
											<SimplePredicate field="appscrv3" operator="lessThan" value="0.02351294"/>
											<Node score="-0.006450151">
												<SimplePredicate field="good_fangzonghe_180d_pct" operator="lessThan" value="0.005030025"/>
											</Node>
										</Node>
										<Node score="-0.00788716">
											<SimplePredicate field="bad_gaowei_all_pct" operator="greaterOrEqual" value="0.04020202"/>
										</Node>
									</Node>
									<Node score="-0.09536373">
										<SimplePredicate field="avg_pay_withholding_fail_cnt_avg03m" operator="greaterOrEqual" value="0.5"/>
										<Node score="-0.0">
											<SimplePredicate field="good_fangzonghe_180d_pct" operator="greaterOrEqual" value="0.06857367"/>
										</Node>
									</Node>
								</Node>
							</TreeModel>
						</Segment>
						<Segment id="17">
							<True/>
							<TreeModel functionName="regression" noTrueChildStrategy="returnLastPrediction" x-mathContext="float">
								<MiningSchema>
									<MiningField name="bad_zhuanqian_now_pct"/>
									<MiningField name="bad_jinrong_toubu_180d_pct"/>
									<MiningField name="good_jiazhang_all_pct"/>
									<MiningField name="good_fangzonghe_180d_pct"/>
									<MiningField name="good_shenghuo_now_pct"/>
									<MiningField name="preav7"/>
									<MiningField name="total_dpddays_thismth_h1"/>
									<MiningField name="appscrv3"/>
									<MiningField name="avg_pay_withholding_fail_cnt_avg03m"/>
									<MiningField name="houselevelv2"/>
								</MiningSchema>
								<Node score="-0.099753365">
									<True/>
									<Node score="-0.0014450432">
										<SimplePredicate field="total_dpddays_thismth_h1" operator="greaterOrEqual" value="1.5"/>
										<Node score="0.09923768">
											<SimplePredicate field="total_dpddays_thismth_h1" operator="greaterOrEqual" value="11.5"/>
											<Node score="0.04400825">
												<SimplePredicate field="avg_pay_withholding_fail_cnt_avg03m" operator="greaterOrEqual" value="12.166666"/>
												<Node score="-0.0012791619">
													<SimplePredicate field="good_shenghuo_now_pct" operator="greaterOrEqual" value="0.094494045"/>
												</Node>
											</Node>
										</Node>
										<Node score="0.057270277">
											<SimplePredicate field="total_dpddays_thismth_h1" operator="greaterOrEqual" value="3.5"/>
											<Node score="0.030636324">
												<SimplePredicate field="avg_pay_withholding_fail_cnt_avg03m" operator="greaterOrEqual" value="10.5"/>
												<Node score="-0.026596693">
													<SimplePredicate field="bad_jinrong_toubu_180d_pct" operator="lessThan" value="0.046785228"/>
												</Node>
											</Node>
											<Node score="-0.0047665476">
												<SimplePredicate field="bad_zhuanqian_now_pct" operator="greaterOrEqual" value="0.019419305"/>
											</Node>
										</Node>
										<Node score="-0.022179775">
											<SimplePredicate field="good_jiazhang_all_pct" operator="greaterOrEqual" value="0.009852455"/>
											<Node score="0.012236079">
												<SimplePredicate field="houselevelv2" operator="greaterOrEqual" value="2.5"/>
											</Node>
										</Node>
										<Node score="0.028197369">
											<SimplePredicate field="good_shenghuo_now_pct" operator="lessThan" value="0.08648902"/>
										</Node>
									</Node>
									<Node score="-0.05917698">
										<SimplePredicate field="total_dpddays_thismth_h1" operator="greaterOrEqual" value="0.5"/>
										<Node score="-0.016517386">
											<SimplePredicate field="avg_pay_withholding_fail_cnt_avg03m" operator="greaterOrEqual" value="3.8333335"/>
											<Node score="-0.042836513">
												<SimplePredicate field="bad_jinrong_toubu_180d_pct" operator="lessThan" value="0.04969136"/>
												<Node score="0.007066262">
													<SimplePredicate field="preav7" operator="lessThan" value="0.033361036"/>
												</Node>
											</Node>
											<Node score="0.04387921">
												<SimplePredicate field="preav7" operator="greaterOrEqual" value="0.030436281"/>
											</Node>
										</Node>
										<Node score="-0.046434317">
											<SimplePredicate field="preav7" operator="greaterOrEqual" value="0.04266402"/>
											<Node score="-0.0061271912">
												<SimplePredicate field="bad_jinrong_toubu_180d_pct" operator="greaterOrEqual" value="0.021660931"/>
											</Node>
										</Node>
										<Node score="-0.0023159774">
											<SimplePredicate field="bad_zhuanqian_now_pct" operator="greaterOrEqual" value="0.031009614"/>
										</Node>
									</Node>
									<Node score="-0.064754635">
										<SimplePredicate field="avg_pay_withholding_fail_cnt_avg03m" operator="greaterOrEqual" value="1.8333333"/>
										<Node score="-0.037475422">
											<SimplePredicate field="avg_pay_withholding_fail_cnt_avg03m" operator="greaterOrEqual" value="5.166667"/>
											<Node score="0.00418686">
												<SimplePredicate field="preav7" operator="lessThan" value="0.06285019"/>
											</Node>
										</Node>
										<Node score="-0.0">
											<SimplePredicate field="appscrv3" operator="lessThan" value="0.019861165"/>
										</Node>
									</Node>
									<Node score="-0.0">
										<SimplePredicate field="good_fangzonghe_180d_pct" operator="greaterOrEqual" value="0.09569597"/>
									</Node>
									<Node score="-0.0028619987">
										<SimplePredicate field="bad_jinrong_toubu_180d_pct" operator="greaterOrEqual" value="0.4166667"/>
									</Node>
								</Node>
							</TreeModel>
						</Segment>
						<Segment id="18">
							<True/>
							<TreeModel functionName="regression" noTrueChildStrategy="returnLastPrediction" x-mathContext="float">
								<MiningSchema>
									<MiningField name="bad_zhuanqian_now_pct"/>
									<MiningField name="bad_jinrong_toubu_180d_pct"/>
									<MiningField name="bad_duwu_all_pct"/>
									<MiningField name="good_qiche_all_pct"/>
									<MiningField name="skilllevelv2"/>
									<MiningField name="good_shenghuo_now_pct"/>
									<MiningField name="bad_jinrong_qita_180d_pct"/>
									<MiningField name="preav7"/>
									<MiningField name="good_fangzonghe_now_pct"/>
									<MiningField name="total_dpddays_thismth_h1"/>
									<MiningField name="bad_gaowei_all_pct"/>
									<MiningField name="good_gongzuoxuexi_all_pct"/>
									<MiningField name="avg_pay_withholding_fail_cnt_avg03m"/>
								</MiningSchema>
								<Node score="-0.09846469">
									<True/>
									<Node score="-0.021059744">
										<SimplePredicate field="total_dpddays_thismth_h1" operator="greaterOrEqual" value="1.5"/>
										<Node score="0.0909902">
											<SimplePredicate field="total_dpddays_thismth_h1" operator="greaterOrEqual" value="11.5"/>
											<Node score="-0.0016385602">
												<SimplePredicate field="avg_pay_withholding_fail_cnt_avg03m" operator="greaterOrEqual" value="22.166668"/>
												<Node score="0.015286492">
													<SimplePredicate field="preav7" operator="lessThan" value="0.05093604"/>
												</Node>
											</Node>
											<Node score="0.003216951">
												<SimplePredicate field="good_shenghuo_now_pct" operator="greaterOrEqual" value="0.124228396"/>
											</Node>
										</Node>
										<Node score="0.053185273">
											<SimplePredicate field="total_dpddays_thismth_h1" operator="greaterOrEqual" value="3.5"/>
											<Node score="0.023340283">
												<SimplePredicate field="avg_pay_withholding_fail_cnt_avg03m" operator="greaterOrEqual" value="13.5"/>
												<Node score="-0.040114637">
													<SimplePredicate field="good_qiche_all_pct" operator="lessThan" value="0.03466715"/>
												</Node>
											</Node>
											<Node score="0.011120613">
												<SimplePredicate field="bad_gaowei_all_pct" operator="greaterOrEqual" value="0.011816865"/>
											</Node>
										</Node>
										<Node score="0.040257014">
											<SimplePredicate field="preav7" operator="lessThan" value="0.062409"/>
											<Node score="1.53744E-4">
												<SimplePredicate field="preav7" operator="lessThan" value="0.04737316"/>
											</Node>
										</Node>
										<Node score="0.013887358">
											<SimplePredicate field="bad_jinrong_toubu_180d_pct" operator="greaterOrEqual" value="0.023623511"/>
										</Node>
									</Node>
									<Node score="-0.04213543">
										<SimplePredicate field="total_dpddays_thismth_h1" operator="greaterOrEqual" value="0.5"/>
										<Node score="-0.016991355">
											<SimplePredicate field="avg_pay_withholding_fail_cnt_avg03m" operator="greaterOrEqual" value="1.8333333"/>
											<Node score="0.004262534">
												<SimplePredicate field="good_gongzuoxuexi_all_pct" operator="greaterOrEqual" value="0.022124326"/>
												<Node score="-0.04605367">
													<SimplePredicate field="bad_duwu_all_pct" operator="lessThan" value="0.036254108"/>
												</Node>
											</Node>
											<Node score="0.018533932">
												<SimplePredicate field="avg_pay_withholding_fail_cnt_avg03m" operator="greaterOrEqual" value="3.8333335"/>
											</Node>
										</Node>
										<Node score="-0.0037663325">
											<SimplePredicate field="bad_jinrong_qita_180d_pct" operator="greaterOrEqual" value="0.102129504"/>
											<Node score="0.013971768">
												<SimplePredicate field="skilllevelv2" operator="lessThan" value="2.5"/>
											</Node>
										</Node>
										<Node score="-0.06498813">
											<SimplePredicate field="good_gongzuoxuexi_all_pct" operator="greaterOrEqual" value="0.0177253"/>
										</Node>
									</Node>
									<Node score="-0.009477904">
										<SimplePredicate field="avg_pay_withholding_fail_cnt_avg03m" operator="greaterOrEqual" value="3.5"/>
										<Node score="-0.047362354">
											<SimplePredicate field="preav7" operator="greaterOrEqual" value="0.038824886"/>
											<Node score="0.020603945">
												<SimplePredicate field="preav7" operator="lessThan" value="0.06869638"/>
											</Node>
										</Node>
										<Node score="-0.058638025">
											<SimplePredicate field="bad_jinrong_toubu_180d_pct" operator="lessThan" value="0.080589056"/>
										</Node>
									</Node>
									<Node score="-0.08027871">
										<SimplePredicate field="avg_pay_withholding_fail_cnt_avg03m" operator="greaterOrEqual" value="1.1666667"/>
										<Node score="0.0014842473">
											<SimplePredicate field="bad_zhuanqian_now_pct" operator="greaterOrEqual" value="0.06483816"/>
										</Node>
									</Node>
									<Node score="-0.0">
										<SimplePredicate field="good_fangzonghe_now_pct" operator="greaterOrEqual" value="0.10487038"/>
									</Node>
								</Node>
							</TreeModel>
						</Segment>
						<Segment id="19">
							<True/>
							<TreeModel functionName="regression" noTrueChildStrategy="returnLastPrediction" x-mathContext="float">
								<MiningSchema>
									<MiningField name="bad_jinrong_toubu_180d_pct"/>
									<MiningField name="bad_gaowei_365d_pct"/>
									<MiningField name="skilllevelv2"/>
									<MiningField name="good_shenghuo_now_pct"/>
									<MiningField name="bad_jinrong_qita_180d_pct"/>
									<MiningField name="preav7"/>
									<MiningField name="total_dpddays_thismth_h1"/>
									<MiningField name="bad_gaowei_all_pct"/>
									<MiningField name="good_gongzuoxuexi_all_pct"/>
									<MiningField name="appscrv3"/>
									<MiningField name="avg_pay_withholding_fail_cnt_avg03m"/>
								</MiningSchema>
								<Node score="-0.09794923">
									<True/>
									<Node score="-0.054258794">
										<SimplePredicate field="total_dpddays_thismth_h1" operator="greaterOrEqual" value="0.5"/>
										<Node score="0.014538109">
											<SimplePredicate field="total_dpddays_thismth_h1" operator="greaterOrEqual" value="1.5"/>
											<Node score="0.093852125">
												<SimplePredicate field="total_dpddays_thismth_h1" operator="greaterOrEqual" value="11.5"/>
												<Node score="-0.0">
													<SimplePredicate field="avg_pay_withholding_fail_cnt_avg03m" operator="greaterOrEqual" value="11.833334"/>
													<Node score="0.049999252">
														<SimplePredicate field="preav7" operator="lessThan" value="0.047045983"/>
													</Node>
												</Node>
												<Node score="0.012086975">
													<SimplePredicate field="bad_jinrong_toubu_180d_pct" operator="greaterOrEqual" value="0.059411764"/>
												</Node>
											</Node>
											<Node score="0.009285188">
												<SimplePredicate field="avg_pay_withholding_fail_cnt_avg03m" operator="greaterOrEqual" value="3.1666665"/>
												<Node score="-0.025926039">
													<SimplePredicate field="good_gongzuoxuexi_all_pct" operator="greaterOrEqual" value="0.048583794"/>
												</Node>
											</Node>
											<Node score="0.056824725">
												<SimplePredicate field="total_dpddays_thismth_h1" operator="greaterOrEqual" value="4.5"/>
											</Node>
										</Node>
										<Node score="0.024301177">
											<SimplePredicate field="bad_jinrong_qita_180d_pct" operator="greaterOrEqual" value="0.033012442"/>
											<Node score="-0.055544335">
												<SimplePredicate field="good_shenghuo_now_pct" operator="lessThan" value="0.02758752"/>
												<Node score="0.003834892">
													<SimplePredicate field="bad_jinrong_qita_180d_pct" operator="lessThan" value="0.03821811"/>
												</Node>
											</Node>
											<Node score="-0.020882323">
												<SimplePredicate field="bad_gaowei_365d_pct" operator="lessThan" value="0.00529338"/>
											</Node>
										</Node>
										<Node score="-0.0">
											<SimplePredicate field="avg_pay_withholding_fail_cnt_avg03m" operator="greaterOrEqual" value="2.8333335"/>
											<Node score="-0.038188614">
												<SimplePredicate field="good_gongzuoxuexi_all_pct" operator="greaterOrEqual" value="0.018461715"/>
											</Node>
										</Node>
										<Node score="-0.031666707">
											<SimplePredicate field="preav7" operator="greaterOrEqual" value="0.050973594"/>
										</Node>
									</Node>
									<Node score="-0.062636815">
										<SimplePredicate field="avg_pay_withholding_fail_cnt_avg03m" operator="greaterOrEqual" value="1.8333333"/>
										<Node score="0.030904805">
											<SimplePredicate field="avg_pay_withholding_fail_cnt_avg03m" operator="greaterOrEqual" value="5.833333"/>
											<Node score="-0.0">
												<SimplePredicate field="bad_jinrong_toubu_180d_pct" operator="lessThan" value="0.04184174"/>
												<Node score="-0.037096675">
													<SimplePredicate field="good_shenghuo_now_pct" operator="lessThan" value="0.076197386"/>
												</Node>
											</Node>
											<Node score="-0.0015962201">
												<SimplePredicate field="avg_pay_withholding_fail_cnt_avg03m" operator="greaterOrEqual" value="8.833334"/>
											</Node>
										</Node>
										<Node score="-0.014882497">
											<SimplePredicate field="bad_gaowei_all_pct" operator="greaterOrEqual" value="0.047745693"/>
											<Node score="0.014749236">
												<SimplePredicate field="skilllevelv2" operator="greaterOrEqual" value="3.5"/>
											</Node>
										</Node>
										<Node score="-0.0">
											<SimplePredicate field="appscrv3" operator="lessThan" value="0.020847391"/>
										</Node>
									</Node>
									<Node score="-0.0">
										<SimplePredicate field="bad_jinrong_toubu_180d_pct" operator="greaterOrEqual" value="0.30952382"/>
									</Node>
									<Node score="-0.08957138">
										<SimplePredicate field="avg_pay_withholding_fail_cnt_avg03m" operator="greaterOrEqual" value="0.5"/>
										<Node score="-0.054451246">
											<SimplePredicate field="bad_jinrong_qita_180d_pct" operator="greaterOrEqual" value="0.046620302"/>
										</Node>
									</Node>
								</Node>
							</TreeModel>
						</Segment>
						<Segment id="20">
							<True/>
							<TreeModel functionName="regression" noTrueChildStrategy="returnLastPrediction" x-mathContext="float">
								<MiningSchema>
									<MiningField name="bad_jinrong_toubu_180d_pct"/>
									<MiningField name="good_qiche_all_pct"/>
									<MiningField name="good_jiazhang_all_pct"/>
									<MiningField name="good_fangzonghe_180d_pct"/>
									<MiningField name="good_shenghuo_now_pct"/>
									<MiningField name="bad_jinrong_qita_180d_pct"/>
									<MiningField name="good_shebao_all_pct"/>
									<MiningField name="preav7"/>
									<MiningField name="total_dpddays_thismth_h1"/>
									<MiningField name="bad_gaowei_all_pct"/>
									<MiningField name="good_gongzuoxuexi_all_pct"/>
									<MiningField name="avg_pay_withholding_fail_cnt_avg03m"/>
								</MiningSchema>
								<Node score="-0.0972537">
									<True/>
									<Node score="-0.053351235">
										<SimplePredicate field="total_dpddays_thismth_h1" operator="greaterOrEqual" value="0.5"/>
										<Node score="0.04862544">
											<SimplePredicate field="total_dpddays_thismth_h1" operator="greaterOrEqual" value="3.5"/>
											<Node score="0.081506364">
												<SimplePredicate field="total_dpddays_thismth_h1" operator="greaterOrEqual" value="12.5"/>
											</Node>
											<Node score="0.032365143">
												<SimplePredicate field="bad_gaowei_all_pct" operator="greaterOrEqual" value="0.011976475"/>
												<Node score="-0.03831906">
													<SimplePredicate field="bad_jinrong_toubu_180d_pct" operator="lessThan" value="0.01818783"/>
												</Node>
											</Node>
											<Node score="-0.015534378">
												<SimplePredicate field="bad_jinrong_qita_180d_pct" operator="greaterOrEqual" value="0.06710978"/>
											</Node>
										</Node>
										<Node score="0.017200304">
											<SimplePredicate field="total_dpddays_thismth_h1" operator="greaterOrEqual" value="1.5"/>
											<Node score="0.018692475">
												<SimplePredicate field="good_qiche_all_pct" operator="lessThan" value="0.012583096"/>
												<Node score="-0.031765494">
													<SimplePredicate field="avg_pay_withholding_fail_cnt_avg03m" operator="greaterOrEqual" value="1.1666667"/>
												</Node>
											</Node>
											<Node score="-0.008584177">
												<SimplePredicate field="preav7" operator="greaterOrEqual" value="0.061632466"/>
											</Node>
										</Node>
										<Node score="-0.024485972">
											<SimplePredicate field="avg_pay_withholding_fail_cnt_avg03m" operator="greaterOrEqual" value="3.1666665"/>
											<Node score="0.0053299437">
												<SimplePredicate field="preav7" operator="lessThan" value="0.049466126"/>
											</Node>
										</Node>
										<Node score="-0.030627314">
											<SimplePredicate field="preav7" operator="greaterOrEqual" value="0.039015405"/>
										</Node>
									</Node>
									<Node score="-0.0656681">
										<SimplePredicate field="avg_pay_withholding_fail_cnt_avg03m" operator="greaterOrEqual" value="1.5"/>
										<Node score="0.00669472">
											<SimplePredicate field="avg_pay_withholding_fail_cnt_avg03m" operator="greaterOrEqual" value="4.166667"/>
											<Node score="3.7086106E-4">
												<SimplePredicate field="good_shenghuo_now_pct" operator="lessThan" value="0.040145002"/>
												<Node score="-0.054559596">
													<SimplePredicate field="bad_jinrong_toubu_180d_pct" operator="lessThan" value="0.044155844"/>
												</Node>
											</Node>
											<Node score="-0.027838651">
												<SimplePredicate field="good_jiazhang_all_pct" operator="greaterOrEqual" value="0.01290376"/>
											</Node>
										</Node>
										<Node score="0.015922023">
											<SimplePredicate field="bad_jinrong_toubu_180d_pct" operator="greaterOrEqual" value="0.062177837"/>
											<Node score="-0.028629905">
												<SimplePredicate field="good_gongzuoxuexi_all_pct" operator="lessThan" value="0.03923077"/>
											</Node>
										</Node>
										<Node score="-0.0">
											<SimplePredicate field="good_shebao_all_pct" operator="greaterOrEqual" value="0.024640761"/>
										</Node>
									</Node>
									<Node score="-0.0">
										<SimplePredicate field="good_fangzonghe_180d_pct" operator="greaterOrEqual" value="0.092927635"/>
									</Node>
									<Node score="-0.079507135">
										<SimplePredicate field="preav7" operator="greaterOrEqual" value="0.07774657"/>
										<Node score="-0.0264166">
											<SimplePredicate field="bad_jinrong_qita_180d_pct" operator="greaterOrEqual" value="0.03183046"/>
										</Node>
									</Node>
									<Node score="-0.08656262">
										<SimplePredicate field="avg_pay_withholding_fail_cnt_avg03m" operator="greaterOrEqual" value="0.5"/>
									</Node>
								</Node>
							</TreeModel>
						</Segment>
						<Segment id="21">
							<True/>
							<TreeModel functionName="regression" noTrueChildStrategy="returnLastPrediction" x-mathContext="float">
								<MiningSchema>
									<MiningField name="bad_zhuanqian_now_pct"/>
									<MiningField name="bad_jinrong_toubu_180d_pct"/>
									<MiningField name="bad_duwu_all_pct"/>
									<MiningField name="good_fangzonghe_180d_pct"/>
									<MiningField name="good_shenghuo_now_pct"/>
									<MiningField name="bad_jinrong_qita_180d_pct"/>
									<MiningField name="good_jiaotong_all_pct"/>
									<MiningField name="preav7"/>
									<MiningField name="good_fangzonghe_now_pct"/>
									<MiningField name="total_dpddays_thismth_h1"/>
									<MiningField name="good_gongzuoxuexi_all_pct"/>
									<MiningField name="appscrv3"/>
								</MiningSchema>
								<Node score="-0.091446064">
									<True/>
									<Node score="-0.029202774">
										<SimplePredicate field="total_dpddays_thismth_h1" operator="greaterOrEqual" value="0.5"/>
										<Node score="0.045605883">
											<SimplePredicate field="total_dpddays_thismth_h1" operator="greaterOrEqual" value="3.5"/>
											<Node score="0.081068926">
												<SimplePredicate field="total_dpddays_thismth_h1" operator="greaterOrEqual" value="11.5"/>
												<Node score="0.0056667426">
													<SimplePredicate field="bad_duwu_all_pct" operator="greaterOrEqual" value="0.048096385"/>
												</Node>
												<Node score="0.0046736705">
													<SimplePredicate field="bad_jinrong_toubu_180d_pct" operator="greaterOrEqual" value="0.06396617"/>
												</Node>
											</Node>
											<Node score="0.017484298">
												<SimplePredicate field="bad_jinrong_toubu_180d_pct" operator="lessThan" value="0.0143371"/>
												<Node score="-0.02205669">
													<SimplePredicate field="appscrv3" operator="lessThan" value="0.05673311"/>
												</Node>
											</Node>
											<Node score="-0.0">
												<SimplePredicate field="appscrv3" operator="greaterOrEqual" value="0.05762472"/>
											</Node>
										</Node>
										<Node score="-0.0">
											<SimplePredicate field="total_dpddays_thismth_h1" operator="greaterOrEqual" value="1.5"/>
											<Node score="0.023564076">
												<SimplePredicate field="preav7" operator="lessThan" value="0.062409"/>
												<Node score="-0.0054232622">
													<SimplePredicate field="preav7" operator="lessThan" value="0.040470794"/>
												</Node>
											</Node>
											<Node score="-0.028803784">
												<SimplePredicate field="good_jiaotong_all_pct" operator="lessThan" value="0.0018971651"/>
											</Node>
										</Node>
										<Node score="-0.059918266">
											<SimplePredicate field="bad_jinrong_qita_180d_pct" operator="lessThan" value="0.008298894"/>
											<Node score="-0.020434333">
												<SimplePredicate field="good_gongzuoxuexi_all_pct" operator="lessThan" value="0.0177253"/>
											</Node>
										</Node>
										<Node score="0.016934345">
											<SimplePredicate field="bad_zhuanqian_now_pct" operator="greaterOrEqual" value="0.010205145"/>
										</Node>
									</Node>
									<Node score="-0.08127042">
										<SimplePredicate field="preav7" operator="greaterOrEqual" value="0.052159436"/>
										<Node score="-0.016067995">
											<SimplePredicate field="good_jiaotong_all_pct" operator="greaterOrEqual" value="0.037926733"/>
											<Node score="0.013366572">
												<SimplePredicate field="good_jiaotong_all_pct" operator="lessThan" value="0.043717153"/>
											</Node>
										</Node>
										<Node score="-0.0">
											<SimplePredicate field="preav7" operator="lessThan" value="0.05222735"/>
										</Node>
										<Node score="-0.0">
											<SimplePredicate field="good_fangzonghe_now_pct" operator="greaterOrEqual" value="0.062895566"/>
										</Node>
									</Node>
									<Node score="-0.0062337946">
										<SimplePredicate field="good_fangzonghe_180d_pct" operator="greaterOrEqual" value="0.08086312"/>
									</Node>
									<Node score="-0.0027572534">
										<SimplePredicate field="good_shenghuo_now_pct" operator="greaterOrEqual" value="0.21846591"/>
									</Node>
								</Node>
							</TreeModel>
						</Segment>
						<Segment id="22">
							<True/>
							<TreeModel functionName="regression" noTrueChildStrategy="returnLastPrediction" x-mathContext="float">
								<MiningSchema>
									<MiningField name="bad_zhuanqian_now_pct"/>
									<MiningField name="bad_jinrong_toubu_180d_pct"/>
									<MiningField name="bad_duwu_all_pct"/>
									<MiningField name="good_qiche_all_pct"/>
									<MiningField name="good_jiazhang_all_pct"/>
									<MiningField name="good_fangzonghe_180d_pct"/>
									<MiningField name="good_shenghuo_now_pct"/>
									<MiningField name="bad_jinrong_qita_180d_pct"/>
									<MiningField name="total_dpddays_thismth_h1"/>
									<MiningField name="good_gongzuoxuexi_all_pct"/>
									<MiningField name="avg_pay_withholding_fail_cnt_avg03m"/>
								</MiningSchema>
								<Node score="-0.0925529">
									<True/>
									<Node score="0.0056560705">
										<SimplePredicate field="total_dpddays_thismth_h1" operator="greaterOrEqual" value="0.5"/>
										<Node score="0.028320689">
											<SimplePredicate field="total_dpddays_thismth_h1" operator="greaterOrEqual" value="1.5"/>
											<Node score="0.07886776">
												<SimplePredicate field="total_dpddays_thismth_h1" operator="greaterOrEqual" value="8.5"/>
												<Node score="0.035602953">
													<SimplePredicate field="avg_pay_withholding_fail_cnt_avg03m" operator="greaterOrEqual" value="15.166666"/>
													<Node score="-0.023018157">
														<SimplePredicate field="good_shenghuo_now_pct" operator="greaterOrEqual" value="0.08889376"/>
													</Node>
												</Node>
												<Node score="0.004975453">
													<SimplePredicate field="bad_zhuanqian_now_pct" operator="greaterOrEqual" value="0.032002047"/>
												</Node>
											</Node>
											<Node score="-0.04560823">
												<SimplePredicate field="avg_pay_withholding_fail_cnt_avg03m" operator="greaterOrEqual" value="11.166666"/>
												<Node score="0.003551454">
													<SimplePredicate field="good_qiche_all_pct" operator="greaterOrEqual" value="0.00893498"/>
												</Node>
											</Node>
											<Node score="5.917756E-4">
												<SimplePredicate field="good_jiazhang_all_pct" operator="greaterOrEqual" value="0.012121655"/>
											</Node>
										</Node>
										<Node score="0.009181791">
											<SimplePredicate field="bad_jinrong_qita_180d_pct" operator="lessThan" value="0.008298894"/>
											<Node score="-0.0">
